tree
version=v4
num_class=1
num_tree_per_iteration=1
label_index=0
max_feature_idx=589
objective=regression
feature_names=Column_0 Column_1 Column_2 Column_3 Column_4 Column_5 Column_6 Column_7 Column_8 Column_9 Column_10 Column_11 Column_12 Column_13 Column_14 Column_15 Column_16 Column_17 Column_18 Column_19 Column_20 Column_21 Column_22 Column_23 Column_24 Column_25 Column_26 Column_27 Column_28 Column_29 Column_30 Column_31 Column_32 Column_33 Column_34 Column_35 Column_36 Column_37 Column_38 Column_39 Column_40 Column_41 Column_42 Column_43 Column_44 Column_45 Column_46 Column_47 Column_48 Column_49 Column_50 Column_51 Column_52 Column_53 Column_54 Column_55 Column_56 Column_57 Column_58 Column_59 Column_60 Column_61 Column_62 Column_63 Column_64 Column_65 Column_66 Column_67 Column_68 Column_69 Column_70 Column_71 Column_72 Column_73 Column_74 Column_75 Column_76 Column_77 Column_78 Column_79 Column_80 Column_81 Column_82 Column_83 Column_84 Column_85 Column_86 Column_87 Column_88 Column_89 Column_90 Column_91 Column_92 Column_93 Column_94 Column_95 Column_96 Column_97 Column_98 Column_99 Column_100 Column_101 Column_102 Column_103 Column_104 Column_105 Column_106 Column_107 Column_108 Column_109 Column_110 Column_111 Column_112 Column_113 Column_114 Column_115 Column_116 Column_117 Column_118 Column_119 Column_120 Column_121 Column_122 Column_123 Column_124 Column_125 Column_126 Column_127 Column_128 Column_129 Column_130 Column_131 Column_132 Column_133 Column_134 Column_135 Column_136 Column_137 Column_138 Column_139 Column_140 Column_141 Column_142 Column_143 Column_144 Column_145 Column_146 Column_147 Column_148 Column_149 Column_150 Column_151 Column_152 Column_153 Column_154 Column_155 Column_156 Column_157 Column_158 Column_159 Column_160 Column_161 Column_162 Column_163 Column_164 Column_165 Column_166 Column_167 Column_168 Column_169 Column_170 Column_171 Column_172 Column_173 Column_174 Column_175 Column_176 Column_177 Column_178 Column_179 Column_180 Column_181 Column_182 Column_183 Column_184 Column_185 Column_186 Column_187 Column_188 Column_189 Column_190 Column_191 Column_192 Column_193 Column_194 Column_195 Column_196 Column_197 Column_198 Column_199 Column_200 Column_201 Column_202 Column_203 Column_204 Column_205 Column_206 Column_207 Column_208 Column_209 Column_210 Column_211 Column_212 Column_213 Column_214 Column_215 Column_216 Column_217 Column_218 Column_219 Column_220 Column_221 Column_222 Column_223 Column_224 Column_225 Column_226 Column_227 Column_228 Column_229 Column_230 Column_231 Column_232 Column_233 Column_234 Column_235 Column_236 Column_237 Column_238 Column_239 Column_240 Column_241 Column_242 Column_243 Column_244 Column_245 Column_246 Column_247 Column_248 Column_249 Column_250 Column_251 Column_252 Column_253 Column_254 Column_255 Column_256 Column_257 Column_258 Column_259 Column_260 Column_261 Column_262 Column_263 Column_264 Column_265 Column_266 Column_267 Column_268 Column_269 Column_270 Column_271 Column_272 Column_273 Column_274 Column_275 Column_276 Column_277 Column_278 Column_279 Column_280 Column_281 Column_282 Column_283 Column_284 Column_285 Column_286 Column_287 Column_288 Column_289 Column_290 Column_291 Column_292 Column_293 Column_294 Column_295 Column_296 Column_297 Column_298 Column_299 Column_300 Column_301 Column_302 Column_303 Column_304 Column_305 Column_306 Column_307 Column_308 Column_309 Column_310 Column_311 Column_312 Column_313 Column_314 Column_315 Column_316 Column_317 Column_318 Column_319 Column_320 Column_321 Column_322 Column_323 Column_324 Column_325 Column_326 Column_327 Column_328 Column_329 Column_330 Column_331 Column_332 Column_333 Column_334 Column_335 Column_336 Column_337 Column_338 Column_339 Column_340 Column_341 Column_342 Column_343 Column_344 Column_345 Column_346 Column_347 Column_348 Column_349 Column_350 Column_351 Column_352 Column_353 Column_354 Column_355 Column_356 Column_357 Column_358 Column_359 Column_360 Column_361 Column_362 Column_363 Column_364 Column_365 Column_366 Column_367 Column_368 Column_369 Column_370 Column_371 Column_372 Column_373 Column_374 Column_375 Column_376 Column_377 Column_378 Column_379 Column_380 Column_381 Column_382 Column_383 Column_384 Column_385 Column_386 Column_387 Column_388 Column_389 Column_390 Column_391 Column_392 Column_393 Column_394 Column_395 Column_396 Column_397 Column_398 Column_399 Column_400 Column_401 Column_402 Column_403 Column_404 Column_405 Column_406 Column_407 Column_408 Column_409 Column_410 Column_411 Column_412 Column_413 Column_414 Column_415 Column_416 Column_417 Column_418 Column_419 Column_420 Column_421 Column_422 Column_423 Column_424 Column_425 Column_426 Column_427 Column_428 Column_429 Column_430 Column_431 Column_432 Column_433 Column_434 Column_435 Column_436 Column_437 Column_438 Column_439 Column_440 Column_441 Column_442 Column_443 Column_444 Column_445 Column_446 Column_447 Column_448 Column_449 Column_450 Column_451 Column_452 Column_453 Column_454 Column_455 Column_456 Column_457 Column_458 Column_459 Column_460 Column_461 Column_462 Column_463 Column_464 Column_465 Column_466 Column_467 Column_468 Column_469 Column_470 Column_471 Column_472 Column_473 Column_474 Column_475 Column_476 Column_477 Column_478 Column_479 Column_480 Column_481 Column_482 Column_483 Column_484 Column_485 Column_486 Column_487 Column_488 Column_489 Column_490 Column_491 Column_492 Column_493 Column_494 Column_495 Column_496 Column_497 Column_498 Column_499 Column_500 Column_501 Column_502 Column_503 Column_504 Column_505 Column_506 Column_507 Column_508 Column_509 Column_510 Column_511 Column_512 Column_513 Column_514 Column_515 Column_516 Column_517 Column_518 Column_519 Column_520 Column_521 Column_522 Column_523 Column_524 Column_525 Column_526 Column_527 Column_528 Column_529 Column_530 Column_531 Column_532 Column_533 Column_534 Column_535 Column_536 Column_537 Column_538 Column_539 Column_540 Column_541 Column_542 Column_543 Column_544 Column_545 Column_546 Column_547 Column_548 Column_549 Column_550 Column_551 Column_552 Column_553 Column_554 Column_555 Column_556 Column_557 Column_558 Column_559 Column_560 Column_561 Column_562 Column_563 Column_564 Column_565 Column_566 Column_567 Column_568 Column_569 Column_570 Column_571 Column_572 Column_573 Column_574 Column_575 Column_576 Column_577 Column_578 Column_579 Column_580 Column_581 Column_582 Column_583 Column_584 Column_585 Column_586 Column_587 Column_588 Column_589
feature_infos=[-1.1505311029598306:4.2242543547871811] [-1.1544863540594519:4.2231829450599188] [-0.92272308820327609:4.2280011689022157] [-3.9109817338298289:3.8948479553355368] [-0.96497322404318775:4.2434985280399244] [-1.1071008354065217:4.1415768889936695] [-1.7022893809563202:4.079851817953621] [-1.05253076318373:4.3287372408931386] [-3.041687903491447:2.9539089792515054] [-3.4806177455909544:3.5017286655301727] [-1.1990210465743403:4.2162691023567778] [-1.6635526547965183:2.1015240927545911] [-1.5923182109013407:2.0834922882372116] [-1.6597386811015091:2.1300558585737526] [-1.5122572199001838:3.2348239682816304] [-3.6242673044076801:2.9891866351980925] [-3.2846068452421102:1.5727579438946309] [-2.4278339661821882:1.8768282459988612] [-2.5450872608005368:1.9999496380221555] [-2.4254950734739062:1.9759070188527041] [-2.7466212080572721:3.3606523896762823] [-0.92281692179625974:4.2290930152445751] [-3.9015919017105896:3.8876323148659959] [-0.96474293091720398:4.2418207617736057] [-1.1044427427498422:4.1437791929770924] [-1.7061478993632919:4.0461035394890983] [-1.0523196617049744:4.3242478850433805] [-3.06885019972247:2.9664065679512861] [-3.4742249232736078:3.4879690939875849] [-3.4813742414467401:3.5046675585402904] [-1.1986555242284263:4.2162552405159355] [-1.2118973571108913:4.2249822581039309] [-1.637364286242702:2.0734836111841779] [-1.5790619794252829:2.0595980668660143] [-1.5144332535818179:3.2310679920213139] [-3.5629413742098661:2.9807344218191933] [-3.3084040067875473:1.5622892040682326] [-2.4228870388493058:1.8748173183502594] [-2.5327759733701725:1.9949335774726038] [-2.4393461193610362:1.9768130724431754] [-2.7080295006217909:3.3045757989137954] [-2.774814428568686:3.3632227607465142] [-0.92244137055297271:4.2324988061215336] [-3.9307929607567758:3.9069717963467778] [-0.96434849386213206:4.2408200382274623] [-1.1050134235318043:4.1397683634362066] [-1.7145514087702622:4.0617877738860235] [-3.0959854735692973:2.9738053034221785] [-3.4794780172332431:3.5020704058920105] [-1.1985578066572551:4.216190366783203] [-1.2117652504094962:4.2253218139366231] [-1.665258434948895:2.0478734796435298] [-1.6060535042635777:2.0330905700009057] [-1.502268758783168:3.2393703904150328] [-3.5735526225157512:2.9890625962435751] [-3.3578093132895699:1.5487683877083989] [-2.5257439823655852:1.987132485770859] [-2.3382070241473358:3.3952982011261286] [-2.8831285504979056:3.4325349613684395] [-1.154481387585232:4.2286879035237339] [-3.9521821371437937:3.9343591367127764] [-0.96476396635297113:4.2396794881803235] [-1.0957821506022354:4.1382698046768702] [-1.7189823778695916:4.0479323742404647] [-1.053131201354198:4.3227561001050736] [-3.1334449207881856:2.9860366565113194] [-3.4715238206007069:3.4854698477404669] [-3.4782225776615987:3.5021472301086107] [-1.198345246249888:4.2169044378693403] [-1.7018200608807219:2.0285610441337116] [-1.6200560667107915:2.1035968633454076] [-1.6422393178971326:2.0166718400712584] [-1.5172817698956358:3.2413818984428371] [-3.5447493513204615:2.972766611782125] [-3.4070133074116806:1.5343827495453091] [-2.4509864489693483:1.87610078290371] [-2.5407131116442168:1.9943807566278351] [-2.5329723337688574:2.0023262032613904] [-2.3162398097195296:3.3817761130768114] [-2.8670760639803401:3.3773261092858662] [-1.1479594468037426:4.2277278765504622] [-1.147205167260092:4.2263038137007198] [-3.9442923458556187:3.9217215054247823] [-0.96400307639497995:4.2428017437590091] [-1.0962154141312985:4.1419795233582324] [-1.710580388615881:4.0479068710573314] [-1.0533947897407621:4.3215102268742251] [-3.1583689562698734:2.9849516487807719] [-3.4731352823428931:3.4870215407187271] [-3.4761678480912641:3.5003973389145999] [-1.6633191975718307:2.0134810039716711] [-1.5159184336243361:3.2340383545806271] [-3.553638233911407:2.979541286614205] [-3.4138360139385524:1.8795946878374266] [-3.6154245465045003:1.9436377398384466] [-2.4636410121110028:1.8668092574098105] [-2.5707230587716556:1.9955600660600792] [-2.3266978024122453:3.3590761882784932] [-2.8988066442213936:3.403519898211206] [-1.1457673698951214:4.2291222971631903] [-0.92061438768203607:4.2265160185943733] [-3.9471887976560081:3.9194511541062509] [-0.96323778182359188:4.2452103919309243] [-1.0904519601179783:4.1423339574204894] [-1.7132046734127175:4.0393162268467195] [-1.0537189299939889:4.3174683071972355] [-3.1888411111729074:2.9863538565960157] [-3.4706047215444351:3.4879059529214773] [-3.4757287258917064:3.4993672414679371] [-1.7017654814430254:1.9957041476736284] [-1.6923407163877215:2.067024883263902] [-1.6748879967612662:1.9852428275757941] [-1.5270049636980283:3.2363963622276182] [-3.5606754554780009:2.9824172262362114] [-3.4311389099422254:1.8312698955603486] [-3.6188410353657741:1.9038510767707724] [-2.471578914910701:1.8449574999822398] [-2.5419201375309877:1.9498661191201643] [-2.6098317513952605:1.9803983962123457] [-2.3494444242412169:3.3773269312509155] [-2.9875308668295131:3.4861147752536779] [-1.1485795962296059:4.2270104124629242] [-1.1492278208218163:4.2294671697690331] [-0.92246075489004842:4.232590631949563] [-3.9382158579443369:3.9182824834058825] [-0.96343059822759114:4.2401412245443391] [-1.095735876572407:4.1351216342104378] [-1.7061369826211028:4.0321424796598455] [-3.2117496559626071:2.9924753148235959] [-1.1981681402891395:4.2141896271660402] [-1.7284048882505108:2.0520876707936146] [-1.701271687247611:2.0038142349047527] [-1.5515877924417321:3.2521519979255338] [-3.5322673988985041:2.9779614010462772] [-3.6442789590032909:1.8918752790396696] [-2.4895692806887584:1.8437780897471454] [-2.5559055070569068:1.9471739897014162] [-2.6618914630310004:1.9870723768417324] [-2.3356367386603338:3.3529144091684775] [-2.8702380744179283:3.4060703091088236] [-3.9277017545406903:3.90493204723025] [-0.96323211547113208:4.2384443899133384] [-1.096908552761289:4.1351330104744468] [-1.7042925627128656:4.0332718396123779] [-1.054350302105415:4.3162423700398724] [-3.2473247675638683:3.001395060515458] [-3.4716307132699393:3.4952992738688464] [-3.4751791562161305:3.5011931726780969] [-1.6082679616961564:1.955023907197452] [-1.5646688239656581:3.2668810054441471] [-3.553241030565546:2.9990456449491019] [-3.5647292999403661:1.8027630843572235] [-3.7068711525040725:1.8877811991993987] [-2.5255800143511209:1.8449093487459236] [-2.5744394757405171:1.9346696545769519] [-2.7455463922138139:2.0059835695094912] [-2.2843830966086749:3.4225355192045259] [-2.9153948459844923:3.4273739079465182] [-3.9209789067024414:3.8992522321676097] [-1.0977841015125371:4.1436084634258732] [-1.6992027861110943:4.0165302144668802] [-1.0543360165583187:4.3123655060803951] [-3.2739939276948911:3.0077110724269103] [-3.4707810181603271:3.4972969583392883] [-1.1980751017904232:4.217203980742064] [-1.5696829857185628:3.2555157637565522] [-3.5412452233667961:2.9845401468285346] [-3.6618075492436533:1.8203889961699629] [-3.780811646874251:1.8878087247344768] [-2.5922862579146804:1.92326020238975] [-2.8278067281213795:2.0176815758574542] [-2.2944026732048561:3.4109643828186735] [-2.9197328964161686:3.4230806388684059] [-1.1515151130402221:4.227436349171291] [-0.92398672169758045:4.2294394481070041] [-3.9412527653318157:3.9257299401296626] [-0.96589644879103431:4.233905420025982] [-1.0979412187551487:4.1347430193187433] [-1.7040636774017888:4.0108369428504327] [-3.2818637949923652:3.005327426692308] [-3.4733832464823804:3.5028726515568986] [-1.1978531554377583:4.2176373038262582] [-1.5726886211601829:1.9182750959608212] [-1.6113906549346664:1.9794597481976377] [-1.5764740510106379:3.2667791187765167] [-3.5308778188504308:2.9786059944313412] [-3.6749419300953439:1.7897735459432107] [-3.7951846800266371:1.8809985498675375] [-2.6000098504208906:1.9277900916510691] [-2.8680771024023883:2.025250631217399] [-2.396568657906514:2.8188537671570493] [-3.0382688497060757:2.4304087680874455] [-1.1553291171989339:4.2326767268607011] [-1.1543181386763881:4.224880658129444] [-3.928425011855968:3.9109119894422539] [-1.0976574345014531:4.1391883444990949] [-1.6976539538413684:4.0194488188750865] [-1.0551887925928374:4.3090975298706828] [-3.2963622068666791:2.9986677551960339] [-3.4681717002356565:3.5043564914282941] [-3.4783082194992603:3.5094179835244517] [-1.6045063466881238:1.8942778689195272] [-1.6447247929327995:1.8885618076451725] [-1.6125064333881707:1.9081010064883046] [-1.5761882971301682:3.267193958892729] [-3.5374011234250293:2.9823770307302526] [-3.6966755813351551:1.8027850726463057] [-3.7989530457591463:1.84980644123716] [-2.5875603379616665:1.8383564449090715] [-2.4382581746393259:2.8154884753240608] [-3.0499321871972866:2.4135761672203011] [-1.1528869284647436:4.2339545115229376] [-1.1516368115164057:4.22660415641006] [-3.9345674986659156:3.9169027881073175] [-0.96678174278886753:4.2439945377782538] [-1.0983898816213409:4.137239451772639] [-1.6923651296039646:4.0118459024107205] [-1.0551097031883812:4.3079877414596925] [-3.305847301830616:2.9999870916519549] [-3.4769809083480716:3.5096101051574142] [-1.6299748206014373:1.8705270569389769] [-1.6760469912346316:1.8701850436412246] [-1.5784809310864583:3.2664498937852766] [-3.5190798420535314:2.9803586962602227] [-3.7060021762306152:1.9260045867629247] [-3.7951016310327037:1.8133962306954863] [-2.5972752757778403:1.8280581850219766] [-2.6012217803207678:1.8901829188236494] [-2.4158343865068552:2.8366489346305213] [-3.0239039650508723:2.4141179151433154] [-1.1559349817193378:4.2357116534677015] [-1.1549692834189453:4.2295201823665867] [-3.9473388909232519:3.9286036262006445] [-0.9663173494667523:4.2321589617960669] [-1.0972826689561108:4.1382224009006761] [-1.6899734766945678:4.0290439186646037] [-3.3245974540711152:2.9973387277442871] [-3.4715554767738919:3.5159684747028233] [-1.1974633966771491:4.2187806223605282] [-1.6658957111631549:1.8566318849269583] [-1.5760143370864783:3.2599660030617934] [-3.5100825274131879:2.9861943537868605] [-3.2399901570189358:1.9952241479689985] [-3.8084987277608873:1.7933767339132196] [-2.9825332297508833:2.0069416751386844] [-2.3798044324880943:2.7265002460026984] [-3.0260761220201871:2.406630228921447] [-3.9506392063839879:3.932501598211648] [-0.96790684419014339:4.2434565928660639] [-1.098727849937521:4.1456880409587544] [-1.688621532485888:4.0170232181426249] [-3.336946688497791:2.9902985816618344] [-3.4821315452123636:3.5219333380283318] [-1.6944811762258616:1.8359707268037835] [-1.7456354371306089:1.8414928165739466] [-1.5795793378133198:3.272211947537671] [-3.5368076062868319:2.9879039532782823] [-3.2373956436789224:2.3159635510267109] [-3.7909881003918593:1.7517678757261406] [-2.6029473583762028:1.8678461803788822] [-2.3811975642511305:2.7483177000192711] [-3.0237715312724216:2.4133824371672636] [-1.1562456277892603:4.2316153406322075] [-0.92045714210673646:4.2281058221775805] [-3.9449235944929226:3.9217438062295709] [-0.96700189040856632:4.2337894531933173] [-1.0956860681436273:4.1381960874022257] [-1.6817833299933971:4.0179095457117748] [-3.339980060856325:2.9706904706985484] [-1.1972523956850687:4.2192475056977585] [-1.6939541920695467:1.891134432365088] [-1.7117528710134053:1.8309067203721421] [-1.5921849501458045:3.2783293905024937] [-3.5045919160288261:2.9709865599500334] [-3.2451484290752073:2.2580247443424901] [-3.7788179905628114:1.7179260890736388] [-2.6119926146948176:1.7980698996786613] [-2.3812306552354676:2.7450323241824068] [-3.0599109330598555:2.4260321808259229] [-0.92006310831860749:4.2236298072084413] [-3.9152135629839244:3.898608941987014] [-0.96921945532367315:4.2355886865368886] [-1.1018586046490553:4.1322368314780915] [-1.6780892805300636:4.0097008387593771] [-1.0564645728336639:4.3031159740381639] [-3.331368018061188:2.9476735768064968] [-3.4679492713855464:3.518888917557728] [-3.4781075553093181:3.5245996985307011] [-1.677428578130445:1.8052363957443052] [-1.7259154018751526:1.8760655719305088] [-1.742906705369861:1.818216422515504] [-1.5691527296275405:3.2865963443911048] [-3.5768754847488378:3.1557254911483947] [-3.8026691343075978:1.7057508822839269] [-2.6029416321815524:1.8498446085752069] [-2.3791284864606501:2.7473186161682781] [-3.0338249327298485:2.4319071990201055] [-1.1670670438366568:4.2257657133367728] [-0.92475149418784452:4.2216044367182031] [-3.938929202186471:3.9236919090964912] [-0.97016146288212113:4.2312609844418985] [-1.1059461606322813:4.1333067223933879] [-1.6758546846683644:4.0186197472406473] [-1.0566230202911169:4.3055400085228603] [-3.3254046051252044:2.935137159892995] [-3.4639469674948673:3.5167796107597873] [-1.7162177784290138:1.7896181798149553] [-1.5871443793607505:3.2526537836580487] [-3.5321645071640542:2.9807849962642279] [-3.2910030623079831:2.3602698852049793] [-3.784831944532244:1.7191566434449732] [-2.6320525587781036:1.7806486871852243] [-2.5947388002561098:1.8247326030515192] [-3.0789677246964393:1.940088773407133] [-2.3962018492504229:2.7277906745349161] [-3.0404995364503717:2.4170808129260677] [-1.1703734061649353:4.2320396575669355] [-0.92480435589805243:4.2184172082636531] [-3.9384409282079322:3.92361687159943] [-0.97090531339337494:4.2389301900307945] [-1.103150267677629:4.1352851789167788] [-1.6769619249136825:4.0166102112700779] [-1.057009533922554:4.3031132876440239] [-3.319131818276098:2.9293337201271483] [-3.4617109374938142:3.5179067015152667] [-1.6831247247086805:1.7667167668570956] [-1.6627721870833367:1.7715530796240087] [-1.5743973044759905:3.1603359943530203] [-3.544101816335516:2.9975239496974204] [-3.274860797738989:2.4300217092085705] [-3.7705086281281561:1.7188888868754344] [-2.6373934944043884:1.7701788325015599] [-2.593486118698443:1.8145831368051215] [-3.0952511529109632:1.9194418414111789] [-2.3840754515923854:2.7148909524015639] [-3.040926151069574:2.4322758242819726] [-1.1968369111443113:4.226088269464527] [-0.92501018043891392:4.2205959040399765] [-3.9389422771821319:3.9157960462118848] [-0.97363266247366409:4.2422641763291615] [-1.1081236803968921:4.1383193596761521] [-1.6762972422806719:4.02811638015966] [-1.057089423233464:4.300337304667563] [-3.3116925539894209:2.9259484540540797] [-3.4582567978250611:3.5165127520698087] [-3.4809394131942972:3.5337875942130821] [-1.68067750253589:1.7432520934099163] [-1.7312023407583563:1.8108560432512049] [-1.6795244651926347:1.7610425257908855] [-1.6577000992793534:1.7471254511368919] [-1.5920053720065095:3.0862740938546334] [-3.5146124121492894:2.9602301343377291] [-3.2826697370042246:2.3715764764172884] [-3.7521155341667232:1.6937550115766113] [-2.6379166544701218:1.7450356585433748] [-2.5839661064830874:1.7823725406635382] [-2.3469489535176091:2.6848548999148139] [-3.0980293555952176:2.438750136542525] [-3.930840005450575:3.9156279375536203] [-1.1044211828707857:4.1346390816200707] [-1.675469262269361:4.0122198809039249] [-1.0571881872187683:4.2986686552025528] [-3.3054441909848156:2.9281343274407692] [-3.4585407644002393:3.5178976665389401] [-1.75650206160864:1.7833971245754572] [-1.7066114002036397:1.7387456876861891] [-1.5877731435203706:3.0921545586626991] [-3.5897880973306666:3.0540625281877034] [-2.869569742211743:2.4169152628169006] [-3.7437903695423111:1.6487056277417858] [-2.5752372110157298:1.7493210340804066] [-3.123654655571336:1.8579269483972356] [-2.4026859714302535:2.7025082050745657] [-3.1039611508203717:2.4492903769010375] [-0.92599264734951814:4.2121700771669515] [-3.9245183830834871:3.8993429416757621] [-0.97390729710623258:4.2308647076760408] [-1.6682769261562098:4.0207613671665019] [-1.0577100367011156:4.2979568335981426] [-3.302296056628975:2.9235187567198713] [-3.4540501600213176:3.5164660816534692] [-3.4747834018448698:3.5346938390223204] [-1.7358836627831145:1.6931227387891343] [-1.787539057842942:1.7618188519449351] [-1.592455473098084:3.0944030607983559] [-3.6062395355661265:3.0664509736050523] [-2.8632257358220015:2.3371403352523483] [-3.7114631605757258:1.7851213689987475] [-2.6223207411683243:1.6825805004682415] [-3.1045040144434841:1.8111376237688874] [-2.3960732877744833:2.7297049696221829] [-3.240889444207808:2.4286984265011462] [-0.92389923047503286:4.2163465061687857] [-3.9144609206125205:3.8911931101554331] [-0.97095661720305892:4.2357351037804909] [-1.106612182657821:4.1326779616501996] [-1.6752301084743644:4.0241725255413181] [-1.0578477147255108:4.2958949432464824] [-3.3111050360323548:2.9371962270983976] [-3.4541412675249017:3.5176793073149941] [-1.7661670295297771:1.6712419367189921] [-1.8141936182397493:1.7385879876742847] [-1.588914169695018:3.0992546815227522] [-3.5808154582793268:3.0589131561324705] [-2.8258231285162365:2.4752899011069252] [-3.6536135048177076:2.0252812263674014] [-2.6080510196412208:1.661255453269713] [-2.5378239840036696:1.6843108708150751] [-3.0787309106361525:1.7745223912439323] [-2.4095181062765567:2.7739924546200649] [-3.1924406642266181:2.4211077616538534] [-1.2027279747408259:4.2278445795379191] [-3.9142806306754561:3.8917333020051741] [-0.97621645544250468:4.2311537408388702] [-1.111593575788089:4.13093551225806] [-1.670184171701127:4.0295699597596393] [-1.0582081737339566:4.2957425672219269] [-3.4556685984004996:3.5215028120065215] [-3.4643754077246851:3.5293071709971802] [-1.1477172183246223:4.2301632992041158] [-1.7897381732031254:1.6454019413828871] [-1.7940613840934754:1.6749925551097435] [-1.6005300704625198:3.0867789010913573] [-3.5733774377817644:3.0689729936573822] [-2.7684309085077992:2.7360488181488996] [-3.5873623910392713:2.2754674934146633] [-2.5906436321950279:1.6331163046779358] [-2.5177959514240573:1.789073017092303] [-3.0432011957424399:1.8871021135091568] [-2.4063412558568982:2.7875875614992505] [-3.1673545296722483:2.410211742342987] [-1.2025188030607834:4.2287846706746741] [-3.9060415222635547:3.8824386902414054] [-0.976102058430524:4.2319317574198747] [-1.108565074760854:4.1325946377274922] [-1.663584051656904:4.0240466067653005] [-3.3201827870159537:2.9528478500488973] [-3.4581844875276766:3.5228031468606855] [-3.4627469646905076:3.5286397917672385] [-1.8002223645021327:1.6123716906342149] [-1.8452975795339654:1.676291293331535] [-1.7665555769482792:1.6167760551950698] [-1.591502530167634:3.0553195748847002] [-3.5634498136384161:3.0551875716808077] [-2.6968362338893197:2.9114208013990281] [-3.4953606234586245:2.5579829063305843] [-2.9945424090572277:2.1177328261223769] [-2.4224222663578292:2.7759889598178704] [-3.1517549233604591:2.4232931529790487] [-1.2033039184349377:4.2307882416520561] [-0.92622217641039528:4.2110677714667029] [-3.9123659322766615:3.8966891951467009] [-0.97675647090539663:4.2314884253901894] [-1.1123717543002987:4.1229006827095693] [-1.6664616003990307:4.018348816217598] [-1.0588475551819863:4.2943689728457004] [-3.3190710279298412:2.9596886965013902] [-3.4585218046662214:3.5208959865494385] [-3.4592068137838763:3.52746418440484] [-1.8671464843706682:1.6468585283710075] [-1.6108229942742758:3.0639419979080222] [-3.6062674253790834:3.0736247032390698] [-2.6305065027137746:2.7839176635781961] [-3.4220735051387656:2.4778795004294309] [-2.5487545430185374:1.7869837556150168] [-2.4709463632889053:1.8383840327439556] [-2.5043182351293338:2.8442108195567495] [-3.1577618854368446:2.4249445126386888] [-0.92573155658298878:4.2118021122459881] [-3.9051319171863095:3.8887199304656264] [-1.1143108926906704:4.1283158515329452] [-1.6668486520041099:4.0291212430539209] [-1.0589763176899536:4.2965696812159591] [-3.3208126857391203:2.9562682262993629] [-3.4597174596710549:3.5214964325520235] [-3.4609892738335706:3.529530322957902] [-1.6009203341860683:3.0192263911087651] [-3.6751684883977256:3.2796332385501974] [-2.9528917340280065:2.8531889456847144] [-3.3301760488433141:2.6818348691590144] [-2.5193785873965089:1.97153280088662] [-2.4398165315612044:2.0804893482632196] [-2.5340469109588803:2.8436341551249393] [-3.2069459262874198:2.4290492984247027] [-1.2041745698896336:4.2306633076519464] [-0.92663244036471748:4.2121344911870899] [-3.9048286340961917:3.8870523435943407] [-0.98039088883702807:4.2295706003073814] [-1.1172342083699784:4.1321084964175903] [-1.6674552320418929:4.0297306540753848] [-1.0591127349949332:4.2942339200581889] [-3.3277402906800808:2.9595385834332255] [-3.4602881188013455:3.5227534151005737] [-3.46157008769578:3.5304484183701712] [-1.8574820328206396:1.6794102502130486] [-1.9063569742731135:1.6005201101033064] [-1.8662243251810811:1.5649501996996187] [-1.6074211547282145:3.0305199812034509] [-3.656205604743866:3.264290592364949] [-2.893587021741042:2.7376198752273577] [-3.2681294838901058:2.593534584337069] [-2.8476449232327443:2.3672142267142702] [-3.3337898509864998:2.6726608642904388] [-3.2029563871929421:2.423223963481556] [-1.2038006427579793:4.2321548577129171] [-0.92773179960096552:4.2165332723499915] [-3.9032063484346939:3.8790079193394247] [-0.98155511229273251:4.2231400711211728] [-1.1198180309749377:4.1242079768111513] [-1.6744791562788326:4.017992217506138] [-3.3251950774647336:2.9614594021917409] [-3.4582092758196246:3.5189950123544493] [-3.4621274779501787:3.530718908463597] [-1.1634210901425805:4.2301195578147874] [-1.8887537036806272:1.6645901722454679] [-1.9501789439971611:1.5888077592491268] [-1.9068377047465963:1.5550168232861907] [-1.8602555712865834:1.5443666832153444] [-1.6063810507649281:3.0244170235189674] [-3.6560269105499055:3.1053831061626083] [-3.2021424277051929:2.5084674580144886] [-2.3879441442909619:2.1351162340797436] [-2.7903856519004022:2.4091764596389109] [-3.3502633640431849:2.7578575857835284] [-3.1895963294829337:2.4365739939468174] [-1.2013716798591316:4.2271231164169292] [-0.92810747553300088:4.2083710208180936] [-3.9121875286292225:3.8815326122615326] [-0.98267460303616416:4.2181728811442225] [-1.1223702269953821:4.12892480938463] [-1.6754534727396404:4.0252866588736289] [-1.0585349742687413:4.2913967598202731] [-3.3220647584100376:2.9581355440223609] [-3.4626422379996757:3.5220333498121552] [-3.4638542608638176:3.5305498344427138] [-1.1662678516582461:4.2317930118981995] [-1.933966352283784:1.6553427676378341] [-1.9043457357726845:1.5336222126937247] [-1.6138151833224428:3.010613904656557] [-3.666171538636656:3.1199580783404102] [-3.1642815693744351:2.4777934205743009] [-3.1387663575219502:2.4473459448650181] [-2.443907892065766:2.0730219818479214] [-2.3464092000931966:2.4151327347441942] [-3.3694704456332349:2.6932610483976669] [-3.2350087910103973:2.4507102070431679] [-1.2045459391403277:4.2307767576066277] [-1.2039056377018271:4.2313446614179435] [-1.2013841064756539:4.2285357935002503] [-0.92504467799961654:4.2071444746644602] [-3.8945175940707366:3.8627608222339269] [-0.98393971652872758:4.2205571260962476] [-1.1264773782659478:4.1227356607462102] [-1.6822287520181685:4.0272262397842047] [-1.0585291264348227:4.292551712480992] [-3.3321104519756961:2.9666502895185758] [-3.4624038603465865:3.5212508260440485] [-1.9731664956259216:1.642718592030693] [-2.0347417310899427:1.5686851478700301] [-1.9976207468155542:1.5373071911178946] [-1.6102786740550028:3.0163800274312167] [-3.7006136512704204:3.298403074148756] [-3.1152900231244995:2.4526661991082146] [-3.0912943898911172:2.3701976914380656] [-2.3286567579893411:2.3678159859165748] [-2.7021804281164719:2.4075055692953815] [-3.333678638968181:2.7045200931232958] [-3.3224476793834441:2.4468335980919349] [-1.9957515373343193:6.0101302361512179] [-1.9226664170609713:5.6931872934348347] [-1.8145551290843038:5.7178211457219623] [-3.5454266981646945:3.417274516607772] [-6.3838318671206373:1.5939615222558585] [-2.8249432047117535:3.8633112375653473] [-2.0414307510048153:5.8965917322631878] [-1.9641045783712845:5.8082419185398972] [-1.8342753931937026:5.7717051916674871] [-3.5981393761960128:4.1747978379097832] [-6.4787685986477399:1.5714680237044478] [-2.6973432176607655:3.7195951593730174] [-2.019502466349401:5.8997606035432959] [-1.9678529975922285:6.0283328155454203] [-1.8476285538037378:5.8694078471130586] [-3.9833555400143226:3.9774555685829673] [-6.4130777600211157:1.5311133911564991] [-2.706081103209931:3.8036433634331153] [-1.7864902451785105:1.401285466696222] [-2.5751577762824391:2.6361412060877583] [-3.2057247714534496:3.9514170538843358] [-2.8144958583445057:3.9279626384430371]
tree_sizes=22534 22751 22779 22830 22794 22805 22797 22765 22846 22777 22757 22667 22691 22716 22714 22639 22587 22454 22435 22570 22594 22319 22491 22274 22575 22684 22383 22340 22295 22412 22540 22298 22259 22341 22421 22147 22420 22310 22185 22279 22176 22326 22231 21902 22217 21765 22344 21850 22068 22186 22048 22306 22078 21939 21856 22182 21967 21906 21940 21898 22163 22045 21693 21815 21860 22200 22107 21814 21858 21726 21922 21789 22184 21710 22219 22033 22052 22255 21902 21947 21602 22053 21843 21755 21812 21933 21775 21851 21701 21883 21821 21746 21631 21751 21938 21890 21918 21896

Tree=0
num_leaves=245
num_cat=0
split_feature=579 79 56 291 423 256 327 540 566 423 92 523 356 567 545 540 494 266 245 523 422 224 267 62 314 373 567 542 72 92 555 348 488 190 571 576 159 181 511 572 565 266 570 488 568 551 555 551 198 97 551 569 505 337 142 497 566 551 145 100 295 555 511 7 82 551 302 22 471 237 215 551 487 97 46 188 551 569 584 266 540 232 198 84 487 358 101 321 303 337 432 142 62 566 488 280 175 191 490 544 339 267 555 432 435 22 571 580 268 193 279 564 493 338 570 555 572 580 473 302 435 497 267 551 487 8 3 555 509 173 100 343 568 194 234 160 555 235 580 437 427 551 8 92 435 28 491 143 555 571 46 511 105 555 491 234 327 473 555 572 584 25 432 572 285 571 551 105 580 47 490 551 247 551 569 62 551 488 101 584 323 571 46 379 555 551 217 415 571 173 435 555 268 142 160 22 580 572 145 551 566 491 571 572 92 218 544 568 43 142 568 247 568 568 551 175 358 358 60 104 571 268 488 302 488 555 551 341 63 358 280 471 160 379 491 452 570 47 43 15 232 526 394 194
split_gain=42235.4 31032.8 20331.1 26686.6 20399.5 15221.4 11421.8 10270.6 10034.4 9714.76 8436.92 7135.65 6878.15 6127.2 5386.39 5365.44 4707.62 4253.18 3718.03 3251.56 3016.65 2967.76 2405.68 2404.47 2245.01 2191.55 1990.61 1978.47 1972.03 1818.52 1864.24 1800.57 1482.76 1397.48 1366.97 1351.1 1234.49 1205.88 1180.66 1113.62 1094.57 993.653 988.815 974.032 961.196 953.791 902.923 882.477 875.552 864.699 790.221 2195.71 1496.47 1116.65 780.63 773.1 771.427 763.763 750.767 726.043 722.874 1155.62 692.515 677.108 676.273 711.799 670.571 660.604 656.545 651.272 646.334 645.541 636.017 626.144 836.457 621.342 685.087 620.247 611.703 592.698 562.921 554.006 551.735 517.312 504.811 500.694 494.903 489.81 478.242 473.636 466.588 466.082 455.297 444.038 439.823 429.478 424.846 419.703 415.78 411.826 406.976 397.688 393.17 386.228 381.312 377.149 374.279 369.352 364.187 348.736 340.994 338.577 336.243 333.687 331.992 331.654 350.441 331.442 330.418 329.455 325.898 325.521 324.5 320.84 320.803 318.03 316.866 358.464 315.059 314.123 381.783 312.828 310.443 303.109 299.897 299.626 299.298 297.044 294.729 294.685 294.424 293.581 293.376 291.463 289.768 288.422 286.375 284.851 284.052 281.556 281.037 277.816 275.218 282.714 274.891 274.323 271.083 270.294 267.01 264.517 315.967 264.429 264.061 262.602 282.523 261.6 260.805 342.642 258.89 257.718 257.364 255.954 253.929 249.104 278.935 248.734 247.992 246.69 245.683 244.84 322.361 269.426 244.035 242.787 264.158 238.199 355.302 237.273 234.208 255.321 234.615 233.854 233.3 232.159 231.353 228.271 226.805 226.722 353.86 222.781 291.947 219.527 218.654 217.833 215.39 213.91 242.811 212.684 236.975 212.541 212.04 211.714 211.571 209.255 346.354 204.784 204.471 203.901 203.245 202.859 201.194 200.397 200.25 199.212 198.698 196.446 196.24 194.362 194.063 193.975 208.87 193.89 234.982 193.853 228.376 193.843 193.702 193.16 192.473 338.516 192.01 191.652 190.186 190.002
threshold=-1.3568882002455527 1.7632797099267188 1.4599166200752201 -0.73070898580705312 -0.20735178025639009 -0.067388056551836925 1.3157182984199867 -1.0647079343682744 -0.1633635879218788 0.31291334469090298 -0.2804314788607627 0.6004988047134715 1.1491064321484601 -1.6967655369755714 -0.58606377518621355 -0.085346721118740324 -1.6077899634452419 -0.33820200150329621 -0.62983126663031197 -0.86587220051263059 0.99120040856320968 0.85765604247068872 -0.30386278669140881 -0.35004906426877608 -0.34660483973628736 -0.49847332712215053 0.65480258529814084 -0.545910812089898 0.34964836970586788 0.072474909823942821 0.30474607666855286 1.1284729215009093 -0.49306255142411964 -0.022464908164037675 -1.0842801967388269 0.41959860665729626 -0.340300566414456 -0.35061759239767215 -0.057486720961777413 1.2325501414861546 -0.40903498510064334 -0.66311764765909709 0.094424825597968248 -0.34735686494464479 -0.88893817886210169 -0.38253539959627786 -0.69461934580282569 -0.38253539959627786 0.39598270185398071 -0.2853954064549748 -0.52146381908467832 -0.78812391889158329 -0.42966044421684857 -0.43767773115902148 -0.53154863986646361 1.0179878144585108 -0.29893627102583248 -0.7381362897309881 0.44937140737564946 -0.37495470866177605 0.42439727278954514 -0.062267610163618682 -0.51691997384822641 -0.36270334441535429 -0.7234079366519327 -0.37614929024074256 -0.513767398087279 -0.85539556742270229 -0.021179249606077245 -0.043899498269349427 -0.33894889510579734 -0.3707823464530372 -0.3755012957578347 0.14775900439449483 -0.57999938415345198 -0.16208122042650494 -0.52146381908467832 -0.029323110167672344 -1.0417277833314811 -0.39300705025246746 -0.11052621116411361 -0.68132304552862011 0.76740081022887241 -0.80432206469575596 -0.71362669414916369 -0.62479495254221395 -0.71922955487981877 -0.51203035404376451 -0.62451607318999158 -0.77910780059162621 -0.25690946975755408 -0.570946543204082 -0.77561407886973677 -0.27286460119814909 -0.57182238195356561 -0.18609377878552438 0.36387180569903876 1.0000000180025095e-35 -0.37613770213368897 0.40533905971761158 0.29195082582039972 -0.66504124148869825 -0.02094573290368305 -1.6359286132657853 0.050666833580584852 -0.5271140870305856 0.316717776967604 -0.34978462379331315 -0.15511161698563233 -0.47659405016438888 -0.5812199173689967 -1.2430803018105481 -0.92132573164173559 -1.2128594201286209 0.92567543408701702 -0.093708674384324633 -0.1640348502045805 1.4206661124014166 -1.9001369513724657 -0.35586169460280032 -0.49172314171952042 1.0179878144585108 0.4679706235603332 -0.37075037466958111 -0.58330817123221446 -1.4706940254819607 -0.8433457859150314 -0.3144755713006076 1.9712325102207864 0.49600799496740861 -0.78576640595407687 0.79895452551311574 -0.58997799697361863 -0.43208070927696113 -0.76663978524691911 -0.3181050696624248 0.74925558252818181 -0.09230324578032606 -0.65704545138956572 -0.59426871041443163 -1.3924178712442055 -0.3707823464530372 0.54848697072521391 -0.54731693530357128 -0.57134001882779273 0.19225322169035872 0.5928301384263408 -0.71125257000272701 1.2165467994375081 -0.076990034624534201 -0.57999938415345198 -0.057486720961777413 -0.40962978687311347 0.84251684303860908 1.0000000180025095e-35 0.46984721181940697 -0.51697781039198376 0.55183711680682079 0.81844952414383632 1.48051805118 -1.5746695081427124 1.3961632036270497 -0.4126790740076533 0.27097843277945516 0.18086458211040332 -0.55376777323441018 -0.71551106271120768 -0.70094226577621432 1.2622349474064614 -0.38214410451009068 -0.37613770213368897 -0.3707823464530372 -1.10171502104968 -0.40724159704397106 0.83260346433876731 -0.67220575756483048 -0.48116144897255658 -0.32766690731228337 0.63875466025679462 -0.87929054546439345 -1.8909448792803634 -0.45806638744688805 -0.26203575942007862 0.52357538207724741 0.46082029235704985 0.82499234032270274 -0.50191285704193545 -0.019859930649877306 0.83009970199134775 1.9031598542801251 -0.26780067485250453 0.35385342873569497 0.88727416877421572 -0.11393086448770764 -0.38679198984104418 -0.075194127010269354 -0.58249035909777491 0.56535396546208971 0.49085166799170049 -0.59300108558771447 -0.1633635879218788 1.1239948178454977 -0.55376777323441018 -1.6466554194431955 0.62168547721451595 1.5462492205659497 1.0000000180025095e-35 0.92039984332281499 0.31466294934098288 -0.5551873818690346 1.1088730833624971 0.13617046810734407 1.0117396116014501 0.031422112495221428 0.13927363237441784 -0.73759532323865262 -0.76093956693789111 -0.37519649281680578 0.64290444524280665 0.84647079543139203 -0.26753889197912956 0.43055249221865999 -0.35129485647111708 0.81856197506300987 0.28272177929092229 0.20538729909800221 -0.25281930880311482 0.97271151635908248 0.63976834845680486 -0.99692356522373149 -0.78923445601254372 0.31446717340965558 -0.71060175639739287 0.51354383018432881 0.72516088479650909 -0.38199583043391444 0.46057032727821989 0.50886313098226088 0.2930355631458848 1.352568897949264 -0.76168980590743551 2.4874082976277885 -0.4007858706989243 -0.3335290441177835
decision_type=2 2 2 2 2 2 2 2 2 2 2 2 2 2 2 2 2 2 2 2 2 2 2 2 2 2 2 2 2 2 2 2 2 2 2 2 2 2 2 2 2 2 2 2 2 2 2 2 2 2 2 2 2 2 2 2 2 2 2 2 2 2 2 2 2 2 2 2 2 2 2 2 2 2 2 2 2 2 2 2 2 2 2 2 2 2 2 2 2 2 2 2 2 2 2 2 2 2 2 2 2 2 2 2 2 2 2 2 2 2 2 2 2 2 2 2 2 2 2 2 2 2 2 2 2 2 2 2 2 2 2 2 2 2 2 2 2 2 2 2 2 2 2 2 2 2 2 2 2 2 2 2 2 2 2 2 2 2 2 2 2 2 2 2 2 2 2 2 2 2 2 2 2 2 2 2 2 2 2 2 2 2 2 2 2 2 2 2 2 2 2 2 2 2 2 2 2 2 2 2 2 2 2 2 2 2 2 2 2 2 2 2 2 2 2 2 2 2 2 2 2 2 2 2 2 2 2 2 2 2 2 2 2 2 2 2 2 2 2 2 2 2 2 2
left_child=7 2 3 4 25 9 12 23 16 11 28 18 15 183 34 20 22 44 32 225 29 40 154 92 125 91 75 79 67 30 41 72 80 78 90 50 179 42 -24 69 107 156 62 114 178 -28 68 56 137 120 51 53 100 57 98 105 170 89 101 134 61 -27 145 121 102 -66 -57 215 -39 235 146 -45 97 150 -75 144 -77 140 -21 169 165 113 159 -80 -59 135 196 -50 155 -9 142 -2 -1 -65 -47 117 131 110 -37 103 138 175 143 -61 -76 212 133 -17 -72 -99 -20 151 -101 173 -33 -51 -117 -69 -85 -36 -48 -46 219 205 166 240 -64 -128 132 -90 -131 -74 201 -73 -31 -25 211 -26 -52 -103 -29 -106 -11 -30 -13 -22 -40 191 -32 -98 -16 -70 -105 192 -3 -53 -7 -71 -10 160 -62 -44 -134 -109 229 -5 -55 -168 -84 -8 -42 -81 -141 -34 -175 -54 -94 -63 -12 181 -181 -35 -127 184 209 -125 -187 202 189 190 -124 -129 -154 -169 -43 210 -38 198 228 204 -201 -88 -83 -122 -136 -49 -207 208 -82 -4 -23 -67 -18 214 231 -6 -148 -95 -60 -89 -205 -144 -68 -138 -157 -15 -102 -87 -56 -165 -231 -174 -233 234 -190 -14 -112 -114 -115 -240 -19 -150 -110 -145
right_child=1 8 13 5 10 6 27 35 158 14 17 26 39 19 73 21 55 24 31 33 37 195 38 85 48 60 45 77 64 59 148 43 81 36 119 54 86 46 70 -41 47 194 161 71 63 94 49 123 87 115 52 88 58 124 197 66 -58 84 218 99 82 177 126 93 65 136 222 95 111 157 108 106 96 74 104 76 -78 -79 83 171 207 187 168 118 -86 227 128 122 129 -91 -92 -93 176 217 -96 -97 149 109 -100 112 226 139 -104 152 141 -107 -108 163 242 -111 236 -113 237 238 -116 116 -118 -119 -120 -121 203 -123 188 185 -126 182 127 147 -130 130 -132 -133 162 -135 199 -137 223 -139 -140 172 -142 -143 221 243 -146 -147 216 -149 241 -151 -152 -153 153 -155 -156 224 -158 -159 -160 -161 -162 -163 -164 164 -166 -167 167 193 -170 -171 -172 -173 213 174 -176 -177 -178 -179 -180 180 -182 -183 -184 -185 -186 186 -188 -189 233 -191 -192 -193 -194 -195 -196 -197 -198 -199 -200 200 -202 -203 -204 220 -206 206 -208 -209 -210 -211 -212 -213 -214 -215 -216 -217 -218 -219 -220 -221 -222 -223 -224 -225 -226 -227 -228 -229 -230 230 -232 232 -234 -235 -236 -237 -238 -239 239 -241 -242 -243 -244 -245
leaf_value=0.18342717960881305 0.12482636021122628 -0.018922607424226218 -0.4712108595737004 0.10955185482064785 -0.075661148846516063 0.25940086355500785 -0.044970522135259039 0.17197044073534273 0.12900775364815067 0.25108772681160701 0.05679345540686679 0.12168656167426919 0.011093583613018515 0.10685036681443412 0.10141642612072783 0.22753910797449173 -0.025847512327710362 -0.13493260496214013 0.17240593925223588 0.013401673042466464 0.083089342692054771 0.21588695812301603 -0.13918841565916526 0.31631414436069266 -0.036574437286419931 0.075300796472636849 0.10335580220383235 0.10035507086365077 0.077640561802184191 0.15300691094672905 0.16646108393838233 0.089481873032558001 0.0035180716105679133 0.07782648030286439 0.14296425050586581 0.22260238585639144 -0.0039957889789676571 0.15420975973716622 -0.066997056942021016 -0.0084293138697368597 0.16667727510003022 0.23477893508812739 0.141644437902122 0.05215446912652582 -0.037331301942912093 0.10223242282275465 0.12648471770087422 0.05459935610340147 -0.071641623033202567 0.15181936819379518 0.32998068718474594 0.22610572196926465 0.37997143938266914 -0.3071042378512181 0.20300481716701196 -0.020834826847304574 0.097328831935293389 0.31752715548536153 0.0078063620578879001 0.059036025965214844 0.050983797174788695 0.0068516601001390037 0.10879394245953349 -0.030557113840411404 0.091865008075214749 0.025428870962086431 -0.09242951376660441 0.037055272491585169 0.23834083756479812 0.091801247757031218 -0.2025993605527473 -0.048385395031082884 0.091764702539346793 0.1290637784656013 0.084823896535402218 0.144570283264434 0.09400012998906572 0.039322880192350168 0.00631822629247622 -0.029988541815573977 -0.042430492762576405 0.10265513682123403 0.12320741093704977 -0.12917295944733548 -0.056595065165899322 0.29169875404105855 0.053924614150513639 -0.1157396113083326 0.10235538233154667 -0.28411666734925234 0.17974924686610452 0.18332267350240306 0.30504334060598348 -0.00038126251978409798 0.005004355377019834 0.0053133101911212871 0.064932792949452131 0.11731752064851905 0.12411241820044047 0.27551465971562994 -0.063795103020592103 0.20135260595479643 0.076032333989899434 0.180219692143337 0.066556056781717346 -0.057399601224411179 -0.089555533592644454 0.092694766911880375 -0.31330082276880011 0.06873096219874783 0.28799761600629897 0.12844131350739019 0.18580693876428545 -0.046469919800585346 0.038261047153417382 0.012970212702350159 0.10784325908928671 0.12714651959291759 -0.061004928505642958 0.20552348857551692 0.26371387378701505 -0.1174748955425306 -0.072481361103508807 0.10078974061086611 -0.41138070799921334 0.054499888496727517 0.078222723037147335 -0.012971667092175149 -0.070566130665320553 0.17995326713409143 -0.37472218253874645 0.039629360303006449 -0.077525540841782176 0.014916483372280007 0.24631032613945505 0.3921024082049579 9.3300481252694967e-06 -0.10717922861965598 0.1683329957347463 -0.030694438218448791 0.28307157731510202 -0.015733603392825368 0.35372625220331771 0.28249744670170612 0.16831442372689082 0.1820530752199577 -0.34842291972892236 0.028248461892999295 0.10555676510607528 0.000956553793579909 0.13869454859634228 0.33332742342668054 0.12991420962653971 0.070738362754874023 -0.12475396938529842 0.16987073271952832 0.17333238438856252 0.18281580251955831 0.050221162431043555 0.05875304724239315 0.10542953431214995 0.22822447601548385 0.0068003100063523808 0.21755183248399187 0.11970011396780246 0.052184045477231669 0.28409086462825461 -0.057159447700424582 0.20672022741577778 0.049716311083444063 0.11788977679095998 -0.10936595550342873 0.15770312778017204 -0.18038534865155204 0.02553005395273434 0.14708480536252019 0.23701981674944508 -0.13868120058887071 -0.016152766775891558 0.0021774181027750805 0.10112395828939677 -0.0022391720523348702 -0.022173942697627791 -0.4739111666268076 -0.13542019140757869 -0.0044557531688280833 0.082521455053102363 -0.014625775219597487 -0.20531710791285229 -0.03544363958274073 -0.18748414046593193 -0.17379840843195382 0.19053840293080146 -0.3987130183191212 0.26849424314698989 0.15526960972119774 -0.098612433316605463 0.24983085974916663 0.13048518494719308 0.20345252082776896 0.13714902462972628 -0.096708988874123936 0.014697247737715191 0.19604286716087038 0.19405088216027666 0.11255112547549459 -0.16317414361093802 0.037253898097576801 0.031569980935093674 -0.25006978071943292 0.17592456096908318 0.082921055542342262 0.049319637918500019 0.065898076650003162 0.26629197569072049 -0.011355429248275359 -0.21201742964270925 0.067347918047614003 0.14347365501457249 -0.19443944566159244 0.078928407593817473 0.24520052799467107 -0.15498257972566018 -0.12694688717452632 -0.089881172003678456 0.043217280570865622 0.18705911259403873 0.351671226281139 0.2797063852302869 0.20136318501595529 0.14187432877881112 -0.24974094412097042 0.099043064464479053 -0.29436911945292304 0.11255112429684327 0.073712432732761637 0.087693190593086778 0.12143987085232091 -0.046202636873690583 0.039925658175096863 -0.031070665623989704 -0.11289025100088476 -0.44225862958883405 0.17035627244126783
leaf_weight=961 2068 379 103 979 919 419 452 31 2338 639 2354 1971 928 2261 3044 474 1744 329 1326 1335 490 1945 441 645 1128 2382 2512 1627 222 1406 2592 2775 146 636 1228 552 326 1014 77 2471 3365 3213 2163 2201 1103 545 792 1479 756 788 568 582 113 79 1174 696 5297 102 598 534 1220 171 684 2372 3447 1787 782 2906 759 677 91 1004 5045 2340 1790 4059 7161 4019 1008 647 1034 297 3660 787 53 1408 1270 1808 694 76 348 3628 878 822 2579 5936 1358 2559 1664 340 39 427 696 1663 739 6433 545 1063 143 3234 49 172 2037 2501 2189 583 1063 457 5445 2415 423 882 196 7352 73 524 917 225 585 20 30 1428 532 2695 1653 2315 728 1178 135 121 90 969 928 220 3724 680 192 842 516 1304 5470 490 2741 605 635 68 2277 591 506 2251 6645 405 1105 513 2601 3578 21 67 398 722 1517 1000 126 366 77 73 1265 330 551 414 1379 1126 1716 179 56 527 3287 3258 440 142 1375 143 791 27 5080 2807 986 1630 519 2327 887 101 3426 1388 1416 46 94 1595 703 71 3778 948 457 335 192 1000 238 901 130 384 158 200 1348 143 49 592 133 831 438 703 3034 31 47 270 23 986 989 579 902 864 361 42 488 435
leaf_count=961 2068 379 103 979 919 419 452 31 2338 639 2354 1971 928 2261 3044 474 1744 329 1326 1335 490 1945 441 645 1128 2382 2512 1627 222 1406 2592 2775 146 636 1228 552 326 1014 77 2471 3365 3213 2163 2201 1103 545 792 1479 756 788 568 582 113 79 1174 696 5297 102 598 534 1220 171 684 2372 3447 1787 782 2906 759 677 91 1004 5045 2340 1790 4059 7161 4019 1008 647 1034 297 3660 787 53 1408 1270 1808 694 76 348 3628 878 822 2579 5936 1358 2559 1664 340 39 427 696 1663 739 6433 545 1063 143 3234 49 172 2037 2501 2189 583 1063 457 5445 2415 423 882 196 7352 73 524 917 225 585 20 30 1428 532 2695 1653 2315 728 1178 135 121 90 969 928 220 3724 680 192 842 516 1304 5470 490 2741 605 635 68 2277 591 506 2251 6645 405 1105 513 2601 3578 21 67 398 722 1517 1000 126 366 77 73 1265 330 551 414 1379 1126 1716 179 56 527 3287 3258 440 142 1375 143 791 27 5080 2807 986 1630 519 2327 887 101 3426 1388 1416 46 94 1595 703 71 3778 948 457 335 192 1000 238 901 130 384 158 200 1348 143 49 592 133 831 438 703 3034 31 47 270 23 986 989 579 902 864 361 42 488 435
internal_value=0.084783 0.0754031 0.0834283 0.0910343 0.0351154 0.109298 0.135911 0.225566 -0.0535558 0.0802601 -0.00764486 0.0631658 0.146143 -0.0112628 0.140594 0.153114 -0.0874461 -0.0533811 0.0418886 -0.00351459 0.176273 0.126811 -0.204676 0.308156 -0.0954806 0.109272 0.108858 0.0272984 0.0375636 0.193403 0.219454 0.064478 0.00902134 -0.019787 0.220944 0.163321 0.00856968 0.138677 -0.277221 0.0411003 0.112819 0.238572 0.107723 0.0341547 -0.00357396 0.0582421 0.165246 0.101714 -0.123358 0.142086 0.125819 0.0772505 0.157037 -0.0941297 0.194945 -0.0599902 0.123318 0.0501009 0.113655 0.171709 0.0916351 0.0467476 0.077033 -0.0258065 0.0729158 0.0599125 -0.104635 0.0103798 0.214658 0.0795628 -0.326751 0.00893797 0.0844848 0.108358 0.0835531 0.125722 0.112295 0.060459 -0.0477634 -0.0401276 0.0420467 -0.012989 0.100765 -0.0590417 0.189601 0.349046 -0.0234105 -0.14504 0.140078 -0.151979 0.283828 0.162085 0.239669 -0.00295834 0.0219664 0.0212204 0.0666634 0.104443 0.148646 0.153209 0.265766 0.154215 0.13122 0.139065 0.0531086 -0.0453776 -0.0134747 0.143221 -0.386511 0.0901936 0.139362 0.257792 0.183517 -0.0384971 0.0668948 0.0993561 0.07424 0.0492978 -0.0696134 0.184436 0.179756 -0.0729417 -0.157004 0.0845129 -0.235659 -0.0222191 0.0505723 0.0318494 -0.00453487 0.0852043 -0.152852 0.0802632 0.00830698 -0.00226521 0.194062 0.375588 0.0293688 -0.0726423 0.298939 0.134676 0.109933 0.0198706 0.304325 0.175018 0.152177 0.140607 -0.241649 -0.0032947 0.15276 0.0335936 0.125367 0.275605 0.146433 0.132852 -0.0851977 0.198484 0.186709 0.134222 0.11499 0.0884769 0.096984 0.155299 -0.0206043 0.138171 0.145227 0.0645086 -0.169537 -0.075035 0.131398 0.0132611 0.151517 -0.0781837 0.10126 -0.10788 -0.144594 0.28857 0.264889 -0.0890083 0.0429575 0.0526942 0.0782774 0.0266608 -0.00423774 -0.388028 -0.321188 0.0904447 0.0705034 0.00475441 -0.181627 -0.161722 -0.173136 -0.0754668 0.143491 -0.155265 0.255432 0.17824 -0.0751025 0.222224 0.201108 0.203249 0.185154 0.0428276 0.021714 0.201183 0.222198 0.0436019 -0.0725787 0.0113267 -0.012481 -0.380975 0.189506 0.0453567 -0.0102403 0.123102 0.171494 -0.0421511 -0.272924 0.035036 0.0320327 -0.129526 0.184074 0.334484 -0.132017 -0.0208342 0.0610857 0.0936464 0.130179 0.313957 0.223846 0.160849 0.153065 0.0822728 -0.0395762 -0.228145 -0.189527 0.0433518 0.0971488 0.171561 -0.0289197 -0.00406512 -0.0805932 0.0891145 -0.413034 0.208022
internal_weight=309294 289974 272986 252689 62212 190477 99389 19320 16988 91088 39459 70978 90832 20297 20110 85179 14144 19615 48427 19888 45297 39882 2684 8303 10630 22753 22551 8557 19844 31118 14139 28701 19726 17035 5758 11017 8460 14179 1670 5653 31352 10989 6549 11409 8985 5636 7630 22964 7700 5195 5040 1972 3068 529 5977 11460 10179 262 2193 16979 17057 2883 3981 6080 8626 7053 2826 11218 2435 3182 1229 6445 17292 14352 5838 16915 11220 5736 8575 2821 7889 11837 14174 7240 155 5199 4905 5394 1443 107 2115 5696 3104 4095 3124 9299 9135 8157 2216 9290 875 1465 1573 6334 3498 8634 4244 8388 722 5793 2364 1421 2956 4856 4964 2434 1646 3363 6232 3643 2761 1985 4638 12785 267 2930 2811 2127 3593 744 50 6473 3008 3699 7689 2960 3606 2306 703 1279 1717 1708 1767 877 5695 1170 507 1210 3150 2662 8514 1249 5800 4137 1014 699 2696 1268 2844 10116 7865 2568 1637 7914 6851 4557 194 115 4058 1174 4882 1647 852 589 443 186 2143 501 2905 3555 1793 1762 2240 409 230 11166 3814 6981 2446 1713 1571 368 3532 94 8293 8530 1312 3761 2131 6283 3214 1371 3723 1969 3069 1619 140 3332 1737 174 5723 2735 2201 731 396 1919 430 1723 728 2192 1546 1128 2130 871 117 2853 172 2239 1612 4250 3737 204 78 733 463 1914 1038 2616 4267 1766 690 558 631 655
internal_count=309294 289974 272986 252689 62212 190477 99389 19320 16988 91088 39459 70978 90832 20297 20110 85179 14144 19615 48427 19888 45297 39882 2684 8303 10630 22753 22551 8557 19844 31118 14139 28701 19726 17035 5758 11017 8460 14179 1670 5653 31352 10989 6549 11409 8985 5636 7630 22964 7700 5195 5040 1972 3068 529 5977 11460 10179 262 2193 16979 17057 2883 3981 6080 8626 7053 2826 11218 2435 3182 1229 6445 17292 14352 5838 16915 11220 5736 8575 2821 7889 11837 14174 7240 155 5199 4905 5394 1443 107 2115 5696 3104 4095 3124 9299 9135 8157 2216 9290 875 1465 1573 6334 3498 8634 4244 8388 722 5793 2364 1421 2956 4856 4964 2434 1646 3363 6232 3643 2761 1985 4638 12785 267 2930 2811 2127 3593 744 50 6473 3008 3699 7689 2960 3606 2306 703 1279 1717 1708 1767 877 5695 1170 507 1210 3150 2662 8514 1249 5800 4137 1014 699 2696 1268 2844 10116 7865 2568 1637 7914 6851 4557 194 115 4058 1174 4882 1647 852 589 443 186 2143 501 2905 3555 1793 1762 2240 409 230 11166 3814 6981 2446 1713 1571 368 3532 94 8293 8530 1312 3761 2131 6283 3214 1371 3723 1969 3069 1619 140 3332 1737 174 5723 2735 2201 731 396 1919 430 1723 728 2192 1546 1128 2130 871 117 2853 172 2239 1612 4250 3737 204 78 733 463 1914 1038 2616 4267 1766 690 558 631 655
is_linear=0
shrinkage=1


Tree=1
num_leaves=245
num_cat=0
split_feature=585 278 208 390 120 402 373 115 91 188 515 349 260 205 567 208 373 63 385 171 495 234 296 545 545 62 555 575 575 402 45 46 247 555 584 255 120 453 506 395 584 372 372 553 304 81 260 514 554 520 553 236 584 584 553 301 502 553 553 240 316 195 395 285 553 196 160 554 61 553 554 555 372 175 578 502 550 584 506 553 195 160 578 333 359 5 519 373 295 578 586 318 578 302 432 307 362 5 539 453 584 87 471 141 285 359 320 63 396 553 198 556 301 553 318 550 104 578 553 232 550 555 341 553 190 527 320 457 126 578 553 573 391 586 101 130 104 234 575 526 486 575 198 553 555 556 486 550 250 584 575 175 61 575 93 550 101 64 66 575 578 550 63 526 59 398 550 433 519 302 235 506 364 93 65 553 555 532 550 527 160 248 542 527 550 341 527 486 532 87 284 432 36 8 194 361 573 285 486 482 450 556 318 66 553 575 196 555 486 213 557 553 236 575 575 87 553 474 398 86 242 550 399 555 550 516 268 546 411 575 250 471 526 513 278 454 553 126 550 395 396 398 527 486
split_gain=32725.4 17951 18794.7 18616 9317.16 10396.7 11586.3 10170.1 10040.8 9188.21 9168.45 6068.43 5970.28 5181.11 4618.93 4148.37 3922.95 3597.42 3259.01 3167.88 2744.93 2641.33 2589.64 2535.88 2490.01 1975.26 1935.89 1858.79 1761.71 1616.19 1585.39 1457.21 1455.65 1401.43 1361.11 1280.65 1217.71 1170.98 1168.05 1164.76 1124.43 1082.35 1071.21 1041.08 1036.66 997.752 995.367 942.832 827.092 799.092 783.661 769.105 744.664 695.766 1646.01 912.162 693.813 3673.49 1499.93 686.512 660.374 659.104 644.874 643.212 624.56 605.177 583.151 556.698 549.156 537.036 532.644 524.015 554.713 523.344 519.726 519.19 514.172 508.75 502.705 502.258 499.817 492.512 483.347 476.9 474.168 472.609 471.854 466.74 452.807 434.195 430.46 423.874 422.398 422.004 416.969 413.326 505.925 470.676 416.128 408.262 406.382 405.381 405.025 403.048 398.138 390.729 386.363 375.078 364.864 364.615 358.93 353.035 352.523 351.609 344.172 344.059 338.722 338.34 354.521 336.713 330.863 326.236 322.848 321.294 314.641 312.367 326.205 307.709 306.631 306.601 303.291 302.365 301.683 298.744 291.9 289.474 288.466 287.315 285.479 284.256 282.57 278.816 278.325 275.864 272.902 272.467 268.999 266.951 264.289 263.635 263.23 262.304 258.8 256.873 255.702 256.429 253.937 253.442 252.688 251.302 247.885 250.998 246.42 243.657 242.754 242.491 241.086 240.032 239.321 239.223 238.881 236.661 236.582 236.128 238.815 235.29 235.242 235.136 233.2 252.629 232.138 231.912 229.567 237.981 229.144 224.629 222.124 221.893 220.012 219.903 219.618 219.041 216.769 237.24 215.969 215.559 212.91 212.326 212.291 212.107 211.226 210.402 210.019 209.078 209.026 208.76 207.339 206.828 204.955 200.801 200.314 202.624 200.017 197.461 197.294 195.633 195.172 193.839 193.335 193.289 283.837 192.737 190.952 190.813 190.175 189.353 187.465 187.387 184.864 183.968 183.858 183.334 182.285 181.612 180.954 179.323 178.693 178.283 177.609 176.463 176.391 176.117 175.506 174.567
threshold=-1.2749615721613854 2.2535182464269998 1.7479607320372901 -0.8476611058525737 1.1474853372349305 -1.3792448834102382 0.38166465085633694 -1.2136812518780753 -0.5738514659673094 1.4519558346142192 -0.023160770695685073 1.4192704716327684 0.012576225741723804 -0.33474169928730657 -1.6060297894923414 1.3548379433487929 1.293236128048342 0.34340625925822571 -2.6217811451178461 0.43047245301426712 0.45308198180819864 -0.37534643174491716 0.32811596340314225 0.22984055979830695 -1.0909731842797732 -0.41368495430256458 0.43173451236735949 0.77141351002326619 -0.84801466203078824 -0.57621348072299683 -0.5841275611274469 -0.28612391280897048 0.69031415278413488 0.50163706969823307 -0.91422725551730377 1.2702403712163077 0.68175543492678703 -0.36195658088159383 0.11245311813161894 -0.48456912058080132 -0.87929054546439345 0.25095141823214745 0.60725142846737967 1.2443157878050604 0.27375140858798958 -0.32713630823215128 0.50949801696791908 1.2411196707225898 -0.59128177729852482 -0.029161849136891911 0.44406872695944472 0.29438207740756001 0.55866374910211747 -0.83390013372792915 1.4956754415322091 -0.56833625659046805 1.5730343084711726 -0.26384213455783062 -0.26897192340940507 0.07706202768693296 -0.31712184715944264 -0.59638278223225649 -0.33936033006439931 -1.2114217909592562 -0.44851453321451101 -0.30426483650831032 1.1881009656830159 -0.39414104907399389 -0.37642138294097433 -0.28436128996412835 -0.38874790554917354 -0.57481722520887335 0.04887081541216496 1.0892282076823967 -1.3599760804716545 -0.31500374019964433 1.5595253118238561 -1.381604171293257 -1.0361961721326107 1.2443157878050604 -0.39194135542442737 -0.3181050696624248 1.5056895362980069 -0.82433776867301811 -0.7009667651811996 -0.41617095286977407 1.0532198364041514 -0.54736988145428878 0.082634132614283165 -1.3836302781343421 -0.0601668745844973 -0.96209047542371662 0.62770916436141566 -0.28184339609445103 0.89761818527259296 -0.79307820967561649 -0.087630895378901799 -0.49979935363791067 0.068261707707914454 -0.78516722698718178 -0.086147644118740915 0.25295694263601803 1.0709240372212323 -0.43507787638051149 -0.61826483076617822 -0.35793305738715547 -0.55739840449620992 -0.7400158045333014 -0.65892070072732023 1.4956754415322091 -1.9223754128876724 1.2800312662546312 0.54207256339407672 0.090113296200807089 -0.83629755062679867 -0.060487432501270387 -0.26771200692261149 -1.1674709012255422 0.93652845671059282 0.28754289903820829 0.62508317814066727 -0.15358995356742183 1.374151571456969 0.93652845671059282 -0.51684349220652115 0.69276905192697125 -0.36178841769283404 -0.55305281441697474 -0.71477153710784502 -0.70189796763351608 -0.26897192340940507 -0.56379869181468811 0.30898764601086132 0.57436912600817502 -0.53464917612338592 -0.98335310434650003 0.7483049097614356 -0.33621709639471703 0.28573143085509373 -0.68908869544851947 -1.0398280974084442 -1.0748995800650067 0.82799714034112692 -0.26384213455783062 1.389209863679979 -0.70474931593032275 -0.83271962487679962 1.1650874262490429 -0.56380855088451287 1.2492085377373976 0.98228894155260038 -0.52715241649039457 -0.37208392884687741 1.277694461827722 0.66327952227172104 -0.71318821934530674 0.66512328579342783 -0.50143465747992721 0.021175205478731793 -1.5426662814777126 0.53849035577374293 0.22594960345186793 1.0430151255630684 -0.37155875040660047 -0.28541618323085982 1.5291299882083846 -1.0090166335264168 -0.51489268055178139 0.26796492561782276 -0.19795599111832166 0.090428743535985914 -0.31194742284954219 0.26443436851886831 0.73198998784890679 -1.1195115300271503 0.96217740096846527 0.47230261306767302 1.0820193318776106 0.16960133408403746 1.4567679180991673 0.084204034240917644 -0.41199690787626769 -1.2890450478566216 0.22225755507702102 1.1650874262490429 -0.42489460138911345 0.26884285179483786 0.26725648479126718 0.48697093437180278 -0.49565845592607322 -0.67857384585419489 0.26537685037513142 -1.4255020151967444 1.2054860273437003 0.66094684976119111 1.0000000180025095e-35 -1.3539832702856505 -0.063644119746459879 0.3685095158067378 2.5075290884947012 -0.40751061045074005 0.21428941757672493 -2.6917431913813359 -0.060437022045557495 -0.58701883220702145 0.71647047705150424 -0.32406432663027213 0.37325096449925371 0.9115939548897164 -0.9427864189876688 0.94959480902441651 -0.35617833388617082 1.4829052132770626 -0.16973846020885916 0.16432615819305582 -0.28988670973085073 3.1115589297781634 -0.18301077117082956 -0.72857822104842695 -0.4203571397216968 0.51006490331874776 0.92091159232177733 0.096263502418368382 0.90718611965029117 0.48421250472109101 -0.072884443229270054 -0.17921941656822601 0.4207221221418504 2.6493109226437714 0.86066258550549513 1.7698693713829552 0.98576001944112102 -0.5960761946179346 2.7336747742424392 -0.55500860558748111 -0.32518603197937795 1.2802243097660815 -0.80162351087178652 -0.027617608703369271 1.8230732800582374 -0.29072920313161682 1.0217295583085011 0.664817873896281 -0.28503277529311788
decision_type=2 2 2 2 2 2 2 2 2 2 2 2 2 2 2 2 2 2 2 2 2 2 2 2 2 2 2 2 2 2 2 2 2 2 2 2 2 2 2 2 2 2 2 2 2 2 2 2 2 2 2 2 2 2 2 2 2 2 2 2 2 2 2 2 2 2 2 2 2 2 2 2 2 2 2 2 2 2 2 2 2 2 2 2 2 2 2 2 2 2 2 2 2 2 2 2 2 2 2 2 2 2 2 2 2 2 2 2 2 2 2 2 2 2 2 2 2 2 2 2 2 2 2 2 2 2 2 2 2 2 2 2 2 2 2 2 2 2 2 2 2 2 2 2 2 2 2 2 2 2 2 2 2 2 2 2 2 2 2 2 2 2 2 2 2 2 2 2 2 2 2 2 2 2 2 2 2 2 2 2 2 2 2 2 2 2 2 2 2 2 2 2 2 2 2 2 2 2 2 2 2 2 2 2 2 2 2 2 2 2 2 2 2 2 2 2 2 2 2 2 2 2 2 2 2 2 2 2 2 2 2 2 2 2 2 2 2 2 2 2 2 2 2 2
left_child=10 2 3 12 5 37 7 38 13 11 25 15 19 69 120 18 23 44 45 34 46 67 29 47 66 107 36 207 134 95 92 75 74 59 65 73 84 198 90 -37 116 50 82 111 206 127 48 60 138 -26 56 213 63 54 55 167 99 58 -58 61 123 234 210 146 184 -2 115 156 -61 141 -43 72 -63 133 94 -16 -28 102 212 91 203 -27 109 -66 -14 -47 103 -36 110 105 -7 131 139 -23 -19 96 153 98 -97 205 114 144 204 172 -41 -34 -49 -1 -53 232 -62 166 -80 -70 -74 181 -17 208 143 -78 236 135 187 173 -64 126 -33 199 -69 -86 -22 159 -111 160 192 -48 -76 -59 -6 -12 -105 -8 180 191 148 -55 196 202 -89 -149 243 -112 -115 -20 155 225 -4 -87 -137 -51 161 -18 238 -120 -57 -136 -42 -52 233 -60 -77 -39 -40 174 -10 -126 -72 -50 179 229 -95 -15 -118 -184 -25 -148 -73 -67 -121 -75 -162 -119 -24 -194 -99 -68 -32 -108 -5 -9 -153 209 -85 -56 -46 -30 -3 -13 -71 -131 -29 -212 -21 217 -123 -183 -84 -38 -122 -144 230 -100 -79 -216 240 -101 -157 -102 -171 -93 -221 -146 -35 -81 -31 -132 -11 -109 -83 -204 -128 242 -65 -90
right_child=1 17 21 4 20 6 8 9 16 14 30 27 26 24 31 40 35 32 22 78 130 93 28 64 49 81 76 62 41 33 52 125 89 42 87 39 51 171 86 104 43 70 -44 -45 77 85 121 106 177 79 53 108 -54 145 80 164 57 137 169 68 88 71 124 241 83 122 195 128 113 117 176 186 100 189 136 170 119 222 112 168 -82 162 216 147 129 157 -88 101 150 -91 -92 178 -94 142 -96 97 -98 194 221 154 227 -103 -104 140 -106 -107 197 237 -110 132 151 -113 -114 152 -116 -117 182 118 163 188 218 214 -124 -125 175 -127 224 -129 -130 201 235 -133 -134 -135 165 158 -138 -139 -140 -141 -142 -143 219 -145 231 -147 185 149 -150 -151 -152 200 -154 -155 -156 226 -158 -159 -160 -161 190 -163 -164 -165 -166 -167 -168 -169 -170 228 -172 -173 -174 -175 -176 -177 -178 -179 -180 -181 -182 215 183 -185 -186 -187 -188 -189 -190 -191 -192 -193 193 -195 -196 -197 -198 -199 -200 -201 -202 -203 239 -205 -206 -207 -208 -209 -210 -211 211 -213 -214 -215 223 -217 -218 -219 -220 220 -222 -223 -224 -225 -226 -227 -228 -229 -230 -231 -232 -233 -234 -235 -236 -237 -238 -239 -240 -241 -242 -243 -244 -245
leaf_value=0.073601318389201406 0.057916074296443021 0.0057430595723666584 -0.11813308955190906 -0.084177711070457129 0.11070931866631309 -0.10767581990124243 -0.065661456252452163 0.11614072187773294 -0.14359985499984534 -0.505827815294705 0.047797739456492128 0.035640310539932094 0.10703728699706946 0.15730902042763298 -0.090242176206845506 -0.034537031391556672 0.01367929418921408 -0.21293113144546316 -0.027655050613834199 -0.073801304962356207 -0.0038933848371974543 -0.14617977817701555 0.01023437335843533 -0.032041375689591672 -0.042108391126360681 0.1908871860236809 0.061740117566572141 -0.018894978599986893 0.023400718446317217 -0.0028069905541061903 0.18560976192588099 -0.051547728282940387 -0.26315336981205745 0.041462169116698061 0.081476066068388545 -0.014733553131164385 0.036758846612264313 -0.22080348329177243 -0.043667585891133155 -0.16343604185845326 -0.11016793985571914 0.059589580966030148 -0.10394380482983903 -0.13638099540738158 -0.11127532526470219 0.091857430115582839 0.070553478782320128 -0.11938697408821604 0.040178155308383381 0.073986794193075758 -0.2316560743678108 0.055946285977662297 0.14799778164409261 0.12333526893936944 0.31347839586690834 -0.13692043813896426 -0.50178756593273011 -0.16302749449646198 0.30944357977651749 0.047491341383767538 -0.16918226021185348 0.045375398357353561 -0.022048573920266556 0.037592186478168102 0.1783657805614722 0.13423541029970684 0.045234126373952542 -0.022330468899057866 0.00078186018685674698 -0.07751716022719865 0.032405942492891929 0.055495212764075458 0.23580368444766206 -0.084571872902142617 -0.1014127222142993 0.041978987433740067 0.0053727311404502534 -0.038685698621011511 0.0069032156323950806 -0.078004869649354866 -0.048068707184219357 0.18927222380830835 -0.053583976882434138 -0.14681704219652131 0.14930468812512768 0.13230026952899959 0.19452316065542113 -0.011016068695309559 -0.046337161552260989 -0.23915860297829941 -0.043057094042278268 0.038328454914528257 0.07663849823605598 -0.15211383047843874 -0.33597344330438789 0.0041460785979363828 -0.094907194456749125 -0.010434359198598274 0.054370516043406723 -0.17809220627109482 0.067754816109457633 0.055682085459810682 -0.36137693259796577 -0.20257922556507937 -0.087451227878895851 -0.46352864675369765 -0.16706118525739325 0.11538346983825236 0.16626407262055667 -0.092953528499729307 -0.055591665347553276 -0.17420652514718968 -0.036788253004365189 -0.19498271272277759 0.11277645599118523 0.067169186917110033 -0.047133671436388858 -0.12161943443237086 -0.094758061240358959 -0.028288376140040507 -0.0096992668150788566 0.098738042124018807 0.21420611963760178 -0.18060524377246354 -0.097366658101248629 -0.17473203620947553 -0.074779686237184229 0.03703766752958066 -0.092016804662146512 0.29746856074689498 -0.025627486768536104 0.015099203021223077 0.0079516160360594609 -0.032027503717259036 0.016353917896472586 0.16966852523326398 -0.24366264102257612 -0.59723617708403853 0.046069660034652973 -0.019967107168542695 -0.12896532401268146 -0.0076789084346990423 -0.27190354858248289 -0.079130534495312668 -0.057004362688702043 0.043223633309706876 0.035535439989721744 -0.09988355932293784 0.036390139771772891 -0.22047311125595326 -0.0089741114505114319 -0.091306122470912368 -0.053382578568001632 0.082938206276387455 0.099194737378838438 0.083091967698601901 -0.23539020019014731 0.20451466388948333 0.070367217120453698 0.19845915960090643 0.12756454980151274 -0.030962289955403129 0.28017686227218358 -0.20950055322184744 -0.39738835573220477 0.093023494792070879 0.0013359230353272016 0.11758541295221892 -0.0091133247587925296 0.22096570348741165 -0.043461284593820183 -0.1636740217801223 -0.11366430387404403 -0.1305633797890477 -0.075641465371693334 -0.16417453429396972 -0.011096318424106239 -0.015891524117867917 -0.0027940531564919434 -0.029503559304187285 -0.2221195379823819 0.14577200380359601 -0.1899513701034557 -0.10132420900781307 0.30144158870831844 0.10627726941845538 0.022596989510219361 0.0018932484483943277 -0.27920674152918007 -0.020265396725062477 0.025504448318761887 -0.38285482655802899 -0.04171629137825008 -0.25716433872437766 -0.048258082816283826 -0.051308603142623643 0.04584467449796166 -0.23721138530294142 -0.14036061767240157 -0.13403292920287754 -0.14315260566658408 0.11755842169072861 -0.056490171855331055 0.10923080385952584 -0.20383477001623804 0.073054130197066303 -0.091364130789345341 -0.022926496228849597 -0.012119120554513719 0.19682441233606482 -0.044046087407952621 -0.10577734097959457 -0.24117035357923747 -0.007123393422927303 0.068698766990227991 0.070420885753701687 -0.31281436564032578 0.10261969544081209 -0.34435116445289021 -0.24343185059170344 -0.16307567710392051 0.16282384568203495 -0.13167306549113858 -0.036190516266806957 -0.20325642409969044 0.12103838357976232 0.027349941231229129 0.13106157712195909 -0.03023467247742477 -0.011549208203409749 -0.42994291640010351 -0.32617089366369029 0.010349572558262686 -0.34444803041238142 0.034958871062847029 -0.096160727222086559 -0.21403633971300223 0.17588488895454726 0.25235275914477323 -0.11443366919473384 -0.13890841479247923 0.098068830804461354 -0.047208272286056348 -0.1012032590431637
leaf_weight=720 1206 626 931 1801 2405 1242 1479 908 681 262 813 2095 1506 1014 649 506 3322 659 1352 468 1573 1276 1089 5333 2796 1635 2938 1739 1578 2401 557 805 117 2603 2814 2117 1016 1501 749 905 194 3777 924 656 350 1045 566 1063 7204 405 26 383 1757 474 78 44 26 20 406 1533 684 2207 462 1875 70 1705 703 1203 1467 1269 2360 5409 386 1266 405 1014 325 352 8701 510 153 665 891 317 3154 814 46 1695 1144 154 5052 5993 838 984 447 3513 1236 4999 698 21 1496 5280 124 634 2534 481 1065 706 1193 538 1317 118 2247 152 511 2116 275 77 295 57 20 2285 495 883 3211 781 681 1699 1240 214 602 415 613 2687 6746 1381 209 56 911 2270 2464 1752 885 2294 104 3067 571 991 3456 213 850 2536 698 239 7243 979 221 1112 302 256 252 1923 1924 455 162 424 5609 71 974 329 460 1316 1240 4878 1882 606 2450 804 4011 704 857 507 604 569 20 1810 3135 132 83 866 1068 52 998 52 2062 328 130 686 1018 34 1085 288 3919 128 724 1702 322 808 730 1840 1717 734 81 467 789 972 29 752 101 345 562 205 543 213 265 802 1444 648 31 812 60 32 6062 26 2509 828 22 1415 1230 584 1061 399 270 1100
leaf_count=720 1206 626 931 1801 2405 1242 1479 908 681 262 813 2095 1506 1014 649 506 3322 659 1352 468 1573 1276 1089 5333 2796 1635 2938 1739 1578 2401 557 805 117 2603 2814 2117 1016 1501 749 905 194 3777 924 656 350 1045 566 1063 7204 405 26 383 1757 474 78 44 26 20 406 1533 684 2207 462 1875 70 1705 703 1203 1467 1269 2360 5409 386 1266 405 1014 325 352 8701 510 153 665 891 317 3154 814 46 1695 1144 154 5052 5993 838 984 447 3513 1236 4999 698 21 1496 5280 124 634 2534 481 1065 706 1193 538 1317 118 2247 152 511 2116 275 77 295 57 20 2285 495 883 3211 781 681 1699 1240 214 602 415 613 2687 6746 1381 209 56 911 2270 2464 1752 885 2294 104 3067 571 991 3456 213 850 2536 698 239 7243 979 221 1112 302 256 252 1923 1924 455 162 424 5609 71 974 329 460 1316 1240 4878 1882 606 2450 804 4011 704 857 507 604 569 20 1810 3135 132 83 866 1068 52 998 52 2062 328 130 686 1018 34 1085 288 3919 128 724 1702 322 808 730 1840 1717 734 81 467 789 972 29 752 101 345 562 205 543 213 265 802 1444 648 31 812 60 32 6062 26 2509 828 22 1415 1230 584 1061 399 270 1100
internal_value=-0.000105228 -0.00842208 -0.00501275 -0.000555126 -0.0114869 -0.01749 -0.0139106 0.00434394 -0.0434906 0.0130001 0.122921 0.0194814 0.059191 0.000230832 -0.104286 0.0272669 -0.0715364 -0.184174 0.0334227 0.0331619 0.0529289 -0.148481 0.0286444 -0.0921663 0.0247982 0.201417 0.11122 -0.0485671 0.0483407 0.0137304 0.0652485 -0.0815472 -0.27228 0.0253359 0.0602282 -0.0334174 0.131578 -0.149275 -0.0842011 -0.0721206 -0.0382984 0.0608867 -0.00234379 -0.0188386 -0.112553 0.10601 0.068357 -0.11342 0.0516507 0.00591846 0.0740752 0.0868462 0.0921289 0.0366477 -0.0558876 -0.224673 0.0848225 0.170095 0.232763 0.0396471 -0.104711 0.0474318 -0.071844 0.0746375 -0.0553038 0.114471 0.0813772 -0.0842747 0.0018319 -0.0656739 0.0319508 0.0584467 0.0829043 -0.0145282 -0.222383 -0.0169537 0.0465331 -0.151194 -0.00666888 0.015438 0.0865692 0.236051 0.00640048 -0.0768321 0.155924 0.145104 -0.119016 0.045886 -0.0857927 -0.386405 -0.0558084 0.0218628 0.0147302 -0.194934 -0.26266 -0.0140274 -0.0477088 -0.00573101 0.0194508 0.079447 0.110141 0.0364084 -0.1931 -0.121851 -0.107447 -0.424325 -0.166153 0.134928 0.139455 0.0127884 -0.10242 -0.00581587 -0.00206415 -0.0283778 0.165718 0.0963326 -0.103798 -0.0853231 -0.105287 -0.0495494 -0.425208 0.10253 0.143719 -0.124521 -0.0986961 -0.119714 -0.104433 0.0620317 -0.0577013 0.169319 -0.0336907 0.0808888 -0.0392134 -0.0044067 0.0113767 0.13139 -0.149833 -0.482971 0.092951 -0.00209723 -0.14403 -0.0342206 -0.211779 -0.086999 0.0171602 0.0539474 0.104953 -0.0797976 0.0207905 -0.121217 -0.055579 -0.0931728 -0.078704 -0.0110417 0.0889161 0.0659807 -0.140628 0.173994 0.15185 0.122194 0.00689827 -0.00268787 0.255386 -0.164369 -0.341754 0.0208878 -0.00239176 0.0239743 -0.0381553 0.257695 0.0153151 -0.194115 -0.0873056 -0.117865 -0.0936983 -0.107973 0.0102478 0.0345488 0.0163496 0.0265753 -0.184702 0.121086 -0.128001 -0.14696 -0.0307954 0.0893123 0.0434241 0.124726 -0.177047 -0.0584511 0.0449886 -0.226924 -0.020505 -0.0523861 -0.0214799 0.0145202 0.159162 -0.194544 -0.104467 0.107111 -0.106841 0.196273 -0.0694513 0.186567 -0.173671 0.049166 -0.0272406 0.0193392 -0.0536349 0.20731 -0.0444215 -0.0625327 -0.0984951 0.0497496 0.0827841 0.0962512 -0.0617554 0.0647721 -0.289037 -0.238695 -0.208303 0.0789917 -0.0951015 0.0464019 -0.125645 0.113406 0.0498722 0.0868886 0.199335 0.0323769 -0.271063 -0.120338 0.0196959 -0.0909294 0.0164913 -0.0664677 -0.483224 0.155746 0.230216 -0.0640049 -0.113839 0.0380773 0.026918 -0.0732323
internal_weight=309294 289709 284196 275632 233000 213137 207501 128315 79186 116888 19585 110767 42632 30945 6121 99395 48241 5513 90864 28416 19863 8564 85252 31301 22542 8295 14216 11372 36736 48516 11290 5716 2472 34212 16919 16940 10813 5636 11427 5556 8531 27427 11660 6577 3041 5612 16860 19854 11324 16902 18840 3811 7369 4203 662 303 14637 868 792 22552 17040 18702 8469 5612 11447 3538 5640 3595 3850 8403 8587 13792 5248 11384 1720 2123 3403 2093 11497 14106 359 5454 10736 6094 7002 2971 5133 13381 8716 752 6294 12596 3921 4969 1106 14304 2827 11477 4416 13769 3041 10567 1198 5087 3439 598 2814 2841 1576 9816 5622 5921 10948 2317 897 4609 1954 5172 3173 465 405 5536 2332 8324 4279 3593 2812 2641 2443 5496 3003 1076 1151 9252 9309 2249 614 76 3316 3083 3098 3231 3693 2423 5287 3541 3068 6024 5151 1204 3094 4938 850 1591 10489 3246 1152 1926 1683 661 6565 5245 3819 750 206 7170 5803 97 1510 766 1474 2817 1989 7441 2563 3817 4810 8008 11520 7509 1841 2493 1448 1173 5353 2381 8544 1837 140 2132 1320 129 2139 1050 7061 1031 687 1751 2819 942 3621 2342 4820 206 1074 3280 948 2903 1999 2054 4190 2451 549 2235 3287 1479 920 1768 121 1852 967 903 895 1002 2007 823 2423 2144 360 6805 405 136 8665 536 4910 1430 284 2121 1895 4503 1742 2544 2145 2244
internal_count=309294 289709 284196 275632 233000 213137 207501 128315 79186 116888 19585 110767 42632 30945 6121 99395 48241 5513 90864 28416 19863 8564 85252 31301 22542 8295 14216 11372 36736 48516 11290 5716 2472 34212 16919 16940 10813 5636 11427 5556 8531 27427 11660 6577 3041 5612 16860 19854 11324 16902 18840 3811 7369 4203 662 303 14637 868 792 22552 17040 18702 8469 5612 11447 3538 5640 3595 3850 8403 8587 13792 5248 11384 1720 2123 3403 2093 11497 14106 359 5454 10736 6094 7002 2971 5133 13381 8716 752 6294 12596 3921 4969 1106 14304 2827 11477 4416 13769 3041 10567 1198 5087 3439 598 2814 2841 1576 9816 5622 5921 10948 2317 897 4609 1954 5172 3173 465 405 5536 2332 8324 4279 3593 2812 2641 2443 5496 3003 1076 1151 9252 9309 2249 614 76 3316 3083 3098 3231 3693 2423 5287 3541 3068 6024 5151 1204 3094 4938 850 1591 10489 3246 1152 1926 1683 661 6565 5245 3819 750 206 7170 5803 97 1510 766 1474 2817 1989 7441 2563 3817 4810 8008 11520 7509 1841 2493 1448 1173 5353 2381 8544 1837 140 2132 1320 129 2139 1050 7061 1031 687 1751 2819 942 3621 2342 4820 206 1074 3280 948 2903 1999 2054 4190 2451 549 2235 3287 1479 920 1768 121 1852 967 903 895 1002 2007 823 2423 2144 360 6805 405 136 8665 536 4910 1430 284 2121 1895 4503 1742 2544 2145 2244
is_linear=0
shrinkage=0.098338


Tree=2
num_leaves=245
num_cat=0
split_feature=585 403 562 115 37 96 148 353 562 447 35 503 325 520 57 448 35 369 57 266 403 508 103 370 223 508 448 582 470 583 524 582 55 583 161 249 537 477 469 525 399 532 574 360 583 583 532 318 531 223 469 360 396 574 532 135 528 157 531 57 246 246 526 359 538 359 528 583 106 392 358 412 434 265 451 397 508 358 345 101 483 486 147 519 532 60 508 532 570 43 430 138 411 412 9 338 570 194 106 508 115 508 451 486 583 528 43 377 570 583 295 177 377 268 526 490 63 251 9 396 377 528 46 393 315 175 146 508 26 3 532 8 491 360 195 471 318 538 508 241 304 583 393 528 158 247 121 63 528 87 570 9 315 533 470 542 532 101 528 531 469 58 165 532 570 528 528 486 359 60 129 583 533 522 236 526 532 3 412 43 213 486 345 491 108 338 410 583 198 304 528 442 583 358 393 265 491 570 26 486 396 246 377 582 486 375 471 570 318 583 250 511 583 528 161 512 164 141 583 469 412 532 43 451 486 412 546 63 318 247 106 358 583 556 60 574 198 200 9 9 377 87 528 198
split_gain=26605.6 17014.1 12873.5 13893.1 14296.6 12900.5 9056.61 7817.88 7525.63 6392.33 5455.91 5289.49 5281.12 4663.3 4424.99 3146.45 2944.01 2753.77 2363.73 2070.68 1874.05 1701.61 1605.94 1579.5 1520.13 1502.78 1496.88 1493.7 1297.76 1273.28 1270.35 1249.11 1221.54 1213.28 1210.86 1109.76 999.853 970.663 950.776 823.996 809.405 808.643 837.629 769.799 766.559 747.742 726.289 712.025 629.388 621.187 747.821 744.984 598.265 590.401 585.973 568.548 566.315 886.107 554.391 539.306 497.799 495.913 688.566 495.681 652.586 492.92 490.646 477.65 459.325 447.818 443.366 433.738 428.428 427.862 420.959 420.147 417.749 415.42 415.272 413.237 406.296 386.641 379.181 374.182 364.49 353.946 349.83 346.926 358.041 340.562 339.618 335.531 334.502 330.048 329.097 325.638 321.762 319.892 319.265 318.242 712.641 454.933 313.847 306.994 306.616 306.051 305.129 301.044 298.193 297.939 297.376 294.938 294.693 302.03 290.964 289.118 285.26 285.084 281.974 275.621 275.396 275.32 273.945 273.013 271.532 271.373 271.042 272.125 270.801 267.948 263.861 262.566 261.634 261.429 254.7 254.402 252.652 250.772 245.815 245.353 244.808 256.598 249.335 242.819 237.72 235.736 233.98 232.969 231.707 226.853 223.175 319.398 222.812 222.289 221.294 221.114 220.93 217.559 217.114 214.752 214.632 214.224 214.222 213.839 213.239 212.288 210.465 209.648 205.147 234.734 201.264 200.973 199.809 197.97 196.754 196.629 196.069 195.454 195.036 201.814 194.856 193.944 192.47 190.564 190.47 190.352 190.327 189.705 188.78 188.424 187.674 201.453 187.058 226.739 186.786 186.117 185.726 185.64 206.562 185.176 184.795 184.334 184.085 183.333 182.385 187.523 182.318 179.443 177.689 176.97 176.867 175.599 175.341 174.696 174.524 183.861 174.52 174.125 172.849 171.529 171.129 169.503 169.359 168.941 166.793 165.525 169.775 163.334 163.055 162.436 161.393 161.175 163.386 344.498 195.152 160.95 160.325 160.139 160.074 159.537 159.311 158.987 242.239 158.957
threshold=-1.2749615721613854 -1.2652044999108638 -0.26808599620496232 1.0131556824109091 -1.1520009753356637 1.544769982913959 0.3385181298867721 1.5801145166215618 -1.1105619396043911 -0.31598271741788403 0.51083923614718518 0.27267626187238508 1.0344829750119657 -1.2103682363278374 0.1369401527877058 -0.31400522684530402 -0.094483913114112097 0.70462344712700309 -0.24462411789599234 -0.33428735516406971 1.1490384837898473 -0.43126834071258069 -0.58615853269080154 0.95270148132044519 -1.2523951661324955 -0.64434388956167676 1.0000000180025095e-35 -0.87594396890762305 -0.33929683431928997 -0.013207969417809233 0.33309590005191042 0.56564576080595619 -0.98477992755569488 -0.8799786551834613 -0.43110190420086497 -0.3363669450202374 0.79411968141399181 0.22271031131283711 -0.22457400094430022 -0.36895282827252435 0.23561561605450249 0.14425336473580128 0.74725407915778819 -0.26720736524785288 0.29515612388556151 -0.63481560215085553 -0.19304566969017053 -0.73296764811504478 -0.43651240272962116 0.37795015255998216 -0.25219544872097566 -0.64473083675979148 -0.47230309235689533 -1.6150532092051331 0.32116622483853513 -0.35372334770768959 -0.40018632629340628 -0.14817456228077802 -0.4974557818834705 -0.073924312590127383 0.10712622000086855 0.10712622000086855 -0.36612116876182338 -0.40471038117725239 0.90111060034249879 -0.52555180096833609 -0.50667638126214676 -0.55363422057382827 0.91689877322052837 -0.63138391980183306 -0.76093956693789111 -0.9181488123965672 -0.81024013576877174 -0.40079695124816345 -1.90295157132668 -0.38210193588096325 -0.3326222532824436 -0.62479495254221395 0.1525121253743244 0.29156775735778978 -1.2049707885518395 -0.22059902828327296 -1.0112975634968964 -0.66566663982289909 0.052604428053868925 1.8558864364599363 -0.55358948912595063 0.052604428053868925 0.85996585329803044 -0.73210254250176543 1.2329648071943404 0.78758705266073836 -0.15141413988525146 -0.33499365389630853 0.35419037076177901 -0.60656049424452052 -0.11429357098174318 -0.40520298241536729 -1.7490470149638535 -0.3326222532824436 -0.075158445455517489 -0.3247305662880326 -0.67764315554830701 0.46055772582080201 -0.38761455396867123 -0.36998699961502618 0.98943739862804381 0.6913810023242335 -0.91975322713375207 -0.63923502741528582 -0.29116930195240948 -0.35519951779360598 -0.26342262732433369 0.06123620214324587 -0.44110679497240096 -0.49351604853604431 1.0721654949924369 -0.14238290400849288 -0.27009228992494311 2.5741032713116643 -0.29823317632193774 -0.44795497564149933 -0.3583883729756463 0.6311575571635043 1.2260239693829076 -0.37491712224697377 1.2273602359504348 -0.91660709086885517 -0.5100353117577151 -0.19462664281763836 0.29166027856422067 1.4634856862925048 0.072278645965484514 -0.19269615376523333 -0.37228352592367453 -0.27166165484169863 0.17903105666260907 0.0039483831935167414 1.5377075643929563 0.13502624252417889 -0.23288726113688055 0.25846404635542192 -1.2350112046198609 0.88732760600302774 -2.4497374466619282 -1.7541745207497723 -0.49048091130039689 1.0721654949924369 -0.4299325833071454 0.27334158229387212 -0.81879032838166965 -0.1933617197110917 -1.0016298964946451 -0.47310835061664974 -0.3471450779483673 1.3925645449612676 1.6652990516790285 0.48054290703699493 -0.88868473678518212 -0.677348983723013 0.32785495458920971 0.51162172360908198 0.55192053650261219 1.2022831916304764 1.0934522437687189 -0.36998146513526214 0.10823555257295608 -1.6473462835012678 -0.61910644854852992 0.34937143669204201 0.36080248336562576 0.70874943993187201 1.1138799939372703 -0.4173225419045003 0.4637122510120974 -0.37155875040660047 -0.62387477475646669 0.56009236026298914 1.7221206060101166 -1.030560471994119 0.63912620566669931 -1.7117800305111126 -0.20852435906343089 -1.122229456736169 0.51648120186698765 0.23501861183340991 0.41265671610073767 0.88041519763862996 1.196447182925511 1.498941238751383 0.32680802757803301 -0.11781363163470543 -1.0547391890703779 0.70942226853542256 0.8339018177029317 -0.43601485345342744 -0.75106446067953236 1.0171527181574491 -0.54461766561016678 2.2462930000936479 -0.33107895629278988 -0.34047411457356785 0.25376267206864017 -0.95347781511435692 -2.2318524170905749 -0.48009437279844031 -0.52214406007731995 -1.1810919862039955 -0.50384482080637316 -2.1179929232236279 -0.30176420791803882 -0.422959754888171 0.5680073837045535 0.7595308349874218 0.26392868053291524 0.23078034668042383 -0.82345431285323201 -0.6483561160002822 1.3326964648588355 0.019415454416333331 -1.5288546083062871 -1.1322824708504045 -0.50717772607274514 -0.77365612842646325 -0.81891239337469002 0.11959186335979873 0.23871424472340766 0.50373329111975218 -2.6917431913813359 0.81097447122182309 -1.8885786685300252 -0.54764633771799687 -1.8115025405692453 -0.91431271376139789 0.25008821321163632 0.33919108479952431 0.51846199848184515 -0.074489420293133199 0.012507825966734542 0.015622767146335049 -0.41261069445692228 0.71187441377668892 -0.4299325833071454 1.0939345760201031
decision_type=2 2 2 2 2 2 2 2 2 2 2 2 2 2 2 2 2 2 2 2 2 2 2 2 2 2 2 2 2 2 2 2 2 2 2 2 2 2 2 2 2 2 2 2 2 2 2 2 2 2 2 2 2 2 2 2 2 2 2 2 2 2 2 2 2 2 2 2 2 2 2 2 2 2 2 2 2 2 2 2 2 2 2 2 2 2 2 2 2 2 2 2 2 2 2 2 2 2 2 2 2 2 2 2 2 2 2 2 2 2 2 2 2 2 2 2 2 2 2 2 2 2 2 2 2 2 2 2 2 2 2 2 2 2 2 2 2 2 2 2 2 2 2 2 2 2 2 2 2 2 2 2 2 2 2 2 2 2 2 2 2 2 2 2 2 2 2 2 2 2 2 2 2 2 2 2 2 2 2 2 2 2 2 2 2 2 2 2 2 2 2 2 2 2 2 2 2 2 2 2 2 2 2 2 2 2 2 2 2 2 2 2 2 2 2 2 2 2 2 2 2 2 2 2 2 2 2 2 2 2 2 2 2 2 2 2 2 2 2 2 2 2 2 2
left_child=8 11 5 4 25 7 9 10 22 23 16 21 15 41 18 24 27 20 36 78 28 132 89 39 84 110 194 73 55 69 46 68 53 97 45 93 44 173 80 139 85 42 95 102 154 -35 221 116 67 51 118 -18 -33 82 111 224 124 107 143 167 -22 62 238 64 225 -55 91 213 94 104 164 162 -61 184 -45 114 -41 147 206 174 122 136 -12 125 112 -23 216 222 -89 -1 211 235 -66 -32 148 181 -72 -5 -59 155 128 163 207 150 -16 -42 -98 228 -88 145 -4 185 -8 -114 -31 220 176 -90 123 156 -39 -78 -29 -51 201 149 127 161 -101 -48 -124 182 -2 -91 -117 -100 -20 236 219 -6 -65 142 239 -40 -52 -57 -123 158 -10 200 151 -82 -68 -73 -14 -38 237 -146 -24 -79 -67 -75 -37 186 -63 243 -167 -26 -153 -170 -87 -77 204 187 -47 -127 -44 -86 179 -9 -46 -7 -129 -49 -3 -53 -102 -27 -130 -148 191 -60 -84 -194 -17 -166 -95 198 -74 -122 -36 -30 -104 210 -141 -206 -19 -21 -152 -136 -81 -43 231 -25 215 -133 -85 -168 -109 -131 -54 -13 -64 -198 -11 226 -15 -150 -58 -107 -203 232 233 -184 -235 -34 -103 -76 -28 -142 -154 -120 -243 -137
right_child=1 2 3 33 6 13 12 178 31 17 32 30 14 63 29 26 49 19 81 43 60 40 77 48 59 37 61 38 56 75 35 52 66 34 83 71 99 120 58 76 105 90 47 74 180 79 129 183 -50 50 144 54 115 65 -56 109 57 98 190 72 -62 70 87 140 92 160 152 -69 -70 -71 96 153 197 126 119 171 121 159 -80 203 103 -83 192 86 177 170 108 88 117 133 -92 -93 -94 196 -96 -97 106 -99 135 100 101 137 202 -105 -106 229 -108 218 -110 -111 -112 -113 113 -115 -116 134 -118 -119 241 -121 199 146 130 -125 -126 175 -128 131 188 138 -132 214 -134 -135 209 165 -138 -139 -140 172 141 -143 -144 -145 157 -147 189 -149 227 -151 208 168 240 -155 -156 -157 -158 -159 -160 -161 -162 -163 -164 -165 195 166 217 -169 169 -171 -172 -173 -174 -175 -176 -177 -178 -179 -180 -181 -182 -183 212 -185 -186 -187 -188 -189 -190 -191 -192 -193 193 -195 -196 -197 223 -199 -200 -201 -202 230 -204 -205 205 -207 -208 -209 -210 -211 -212 -213 -214 -215 -216 -217 -218 -219 -220 -221 -222 -223 -224 -225 -226 -227 -228 -229 -230 -231 -232 -233 -234 234 -236 -237 -238 -239 -240 -241 -242 242 -244 -245
leaf_value=0.16959372919571652 -0.08587693770150788 -0.035855367556554642 -0.071734069241936871 -0.095182629050382231 0.024073655410277586 -0.15561552896283448 0.108679619600584 -0.20974593509292352 0.040097639015400005 -0.13849308479594771 0.06301474906710948 0.021661259232680134 0.038414248743058647 -0.12203474693675166 0.072991307758739701 -0.031149486849246691 0.057486687920996142 0.0038423979848427477 0.08101957247128988 -0.11131641282277079 0.29847767045997192 -0.17999655799275999 -0.070461217123751543 0.11782461369670671 -0.11593766428216862 -0.078445046931251011 0.025424023004550215 0.044725604111960929 -0.031673408851190139 -0.074773409748364397 -0.099904379637144228 0.021024795758433312 0.034955620295059893 -0.11284124834901525 -0.078929563473234821 -0.10268515351631671 0.028725377158255579 -0.13559174784694755 0.072819739667679628 -0.011215816644652246 -0.26550297151330665 0.047500590346036514 0.16731012761249386 -0.34376868492665824 -0.07722523280197939 -0.14323280264174132 0.0062424339700909047 0.093380729585948979 0.010329792264949698 0.048316009506811301 0.011147666797160619 0.089689554344975206 -0.016072528870658628 0.018536845309454496 0.076974063333931531 -0.076234099948115849 -0.12503692095611263 -0.20015901228907479 0.067013705393442577 0.030427836007179403 0.023211833274823079 0.057979699291583933 0.082018344983403726 -0.11399906763901101 0.014663029152949933 0.066840717888809548 0.00019573854099947272 0.038419227951212699 -0.064007873526178011 -0.031028871653562148 0.13592609772301989 -0.15062852952870498 0.093279082722927939 0.011520255485587567 -0.13592806622041226 -0.061827339601022817 -0.018138781035230759 0.22421214046908769 -0.12273982704959659 -0.19254298643662551 0.23186519391370222 0.041725884445605869 0.017575393750097097 -0.10305488994521961 0.038651857249610636 -0.26569456223033272 -0.13981444648858221 -0.082641831611819205 0.016498113738590236 0.061538146448976649 0.021441895893797538 -0.029718049276928771 -0.071548742857487344 -0.082312948166350833 0.067549829190532235 0.01855850625986848 0.026176595522116784 -0.032969167314730451 -0.067780088962600016 0.056379777799690931 -0.097079279831001605 -0.010805399705635571 -0.049214840520870377 0.10270624969732603 -0.012891486587795356 -0.36606929757516127 0.071501642131399326 -0.09388061733199822 -0.056347657636123538 -0.027410013755241401 -0.01254799562572185 0.15145329175384742 0.22213742932065755 0.12877013912009186 -0.13033635308651403 0.050972030006526253 0.28394574454697447 -0.044034973729602328 0.043831956766155845 -0.30551254390450455 -0.18203194449065269 -0.23510926435572868 0.14139957868962233 0.14226305082854954 0.25213046622309992 -0.10127225190459567 0.14438495964635004 -0.034985746354165022 0.0012230447605158339 -0.18596336768752028 0.058200075052401004 -0.12621783205334247 -0.18292076653468428 0.13560002539630006 0.055386242467346095 -0.15952761565985665 0.14794069900550941 -0.046829545761181868 -0.30283719813939852 -0.30346715768503069 -0.021412653922500906 -0.12672771672013866 -0.044433808242358118 -0.051464372728084698 0.119486097778534 0.027972881172965224 -0.057830845429673282 0.26568671620135614 -0.029522375427522955 -0.12930430068704218 0.08037280344451643 0.11661861174220096 -0.015376020075336635 -0.096295558722493277 -0.042722765977493707 -0.0062144716687239504 0.059802392106190969 0.084911382471966432 0.21592596961258448 0.16207606025179291 0.12458566256348297 0.23874935120911941 -0.19986026244466043 -0.18019425767855801 0.05881251847229059 -0.076843000469701855 -0.2840348328830703 0.030349164192957041 -0.20636786424298489 0.1251040745058247 -0.41493020621583615 0.0013971542826918572 -0.15389467563223597 0.063527157153627611 -0.20902216239654317 -0.16291888156238002 0.033912741523896665 0.13740538201306299 -0.12731670128492803 -0.42341516109031607 -0.15600057354447402 -0.026253373627264716 0.16750242329632195 0.011384894212659731 0.072810328382336476 0.14472375405374044 0.022003899148032829 -0.11623683447624709 0.089877590488277259 -0.13761058598361856 -0.0014728531774758301 0.021175850688976639 -0.055248631909624743 0.024096223533809174 0.015263079656147469 0.14664966881406202 -0.07870357584983767 0.09710571386471302 0.053713742576464683 -0.30989876715140147 0.048273133536953415 -0.27574625108598766 -0.14382812866727931 -0.1876188803971138 -0.037915903427660685 0.0088158649774657399 -0.059258628140658944 -0.2378495984788826 0.038388025961952094 0.13057132428038745 -0.3105886094323469 -0.10919847611097211 -0.11297053048837302 -0.05874880716146004 0.088370651107419082 -0.4719858818117692 -0.026049999210200729 -0.13266221160992456 -0.27986529896767853 -0.049978657997438773 0.13510878290824996 -0.030967835716318441 0.014134628799661469 -0.0056721830366424867 -0.061046583278344772 -0.037910330430900314 -0.043715229751215737 0.058488154548153488 -0.04255364708410489 -0.47806862014998674 -0.065986128433689839 0.068057072660616044 0.026535272816736656 -0.26113252065777159 0.084108063474052225 -0.035768753542247365 0.021929341768910714 -0.20645542393587987 0.059596247397606765 -0.15226305814846539 -0.053227156258775013 0.056589815899544725 -0.047120517883052652 -0.30473830960753284
leaf_weight=914 455 2365 3640 1343 3886 126 672 49 1518 306 1050 1226 753 1364 805 4589 2004 915 2743 195 65 449 26 1097 98 1987 2321 476 2655 2123 1556 1045 3091 1620 291 272 9412 1676 4015 3673 157 76 374 204 1103 1096 116 405 8367 829 294 1636 75 1504 2037 238 248 477 1274 1925 2813 1110 460 4064 1301 1612 1753 4649 527 4148 320 1126 2103 70 433 4250 1500 793 577 166 34 2232 1725 368 424 364 1053 731 1992 984 339 1370 654 754 1687 4304 6957 1974 852 2194 405 5138 606 1755 803 247 1810 1441 682 6712 1060 4664 905 532 1597 1338 148 1209 1722 193 1962 79 2018 468 29 758 178 526 2414 198 451 58 656 867 418 269 681 1420 94 20 117 768 1843 158 3364 1780 3602 1409 1216 434 1909 35 1607 2061 572 2152 36 3691 1660 1672 1014 94 1134 184 339 765 78 2846 119 25 115 549 92 70 734 1472 149 357 28 335 419 1014 36 848 167 967 191 3633 257 311 2145 3406 1063 518 1026 748 405 4089 3245 116 178 36 296 310 1206 2666 858 244 1992 1098 471 768 77 57 24 20 1256 1270 50 164 2093 1144 1563 1257 2219 423 333 245 3540 254 2417 897 766 76 20 346 2014 1108 3091 392 3250 356 561 100
leaf_count=914 455 2365 3640 1343 3886 126 672 49 1518 306 1050 1226 753 1364 805 4589 2004 915 2743 195 65 449 26 1097 98 1987 2321 476 2655 2123 1556 1045 3091 1620 291 272 9412 1676 4015 3673 157 76 374 204 1103 1096 116 405 8367 829 294 1636 75 1504 2037 238 248 477 1274 1925 2813 1110 460 4064 1301 1612 1753 4649 527 4148 320 1126 2103 70 433 4250 1500 793 577 166 34 2232 1725 368 424 364 1053 731 1992 984 339 1370 654 754 1687 4304 6957 1974 852 2194 405 5138 606 1755 803 247 1810 1441 682 6712 1060 4664 905 532 1597 1338 148 1209 1722 193 1962 79 2018 468 29 758 178 526 2414 198 451 58 656 867 418 269 681 1420 94 20 117 768 1843 158 3364 1780 3602 1409 1216 434 1909 35 1607 2061 572 2152 36 3691 1660 1672 1014 94 1134 184 339 765 78 2846 119 25 115 549 92 70 734 1472 149 357 28 335 419 1014 36 848 167 967 191 3633 257 311 2145 3406 1063 518 1026 748 405 4089 3245 116 178 36 296 310 1206 2666 858 244 1992 1098 471 768 77 57 24 20 1256 1270 50 164 2093 1144 1563 1257 2219 423 333 245 3540 254 2417 897 766 76 20 346 2014 1108 3091 392 3250 356 561 100
internal_value=-9.488e-05 -0.00759387 -0.00218278 -0.0167338 -0.00907389 0.0288713 -0.00065868 0.0491906 0.110833 -0.0288134 0.0517903 -0.112549 0.0188746 -0.0409733 -0.00367621 0.0429616 0.0698105 -0.0582943 0.0154789 -0.120889 -0.0457908 -0.236504 0.181727 0.00333162 0.0761301 -0.103823 0.022783 0.0466909 -0.0542862 -0.0496807 -0.0834966 0.0584183 0.00853117 -0.110228 -0.12609 -0.102646 0.00400175 -0.126436 0.0591635 -0.0168466 -0.301879 0.0137746 0.0258919 -0.170947 -0.0513014 -0.165936 -0.0277465 0.0816656 0.0275896 0.0955835 0.0792609 0.111873 0.0887205 0.0367891 0.123587 -0.0293353 -0.0740249 -0.0887741 0.0398783 0.0629888 0.0294287 0.0340502 0.0195528 -0.0825533 -0.055157 0.0634277 -0.0124723 0.0524756 0.0230162 -0.0139509 0.0486542 -0.135564 0.0727078 0.000708869 -0.210005 -0.0738221 -0.0368883 0.212185 -0.0502762 -0.196909 0.0832275 0.0735708 0.0115325 -0.0991022 0.141182 -0.242724 -0.0763015 -0.00352046 -0.0205456 0.12048 -0.0616953 0.0114329 -0.0141771 -0.0645821 0.0328451 0.00618063 0.0390695 -0.0581584 -0.12491 0.0101089 0.000255166 -0.0156245 -0.113452 0.0682714 0.0301033 -0.385308 0.0355342 -0.0626869 -0.107005 -0.0174488 -0.0583857 0.136653 0.162434 0.187571 -0.0986266 0.102807 0.163414 -0.0063649 0.0446705 -0.194588 -0.16525 -0.0540578 0.113033 0.0822152 -0.0479261 -0.123548 0.0268994 0.0190494 0.0307807 -0.127202 0.126202 0.0109995 -0.143177 0.0962284 0.0822422 -0.114144 0.0943295 -0.00908194 -0.161149 0.0064929 -0.0980934 -0.0773753 -0.0612602 0.068114 0.097787 0.0156829 -0.0675544 0.236174 0.0131919 -0.0780664 0.0535818 -0.0444371 -0.0298569 -0.115492 0.00338755 0.0222233 -0.181012 0.101397 0.21151 0.182065 0.0891383 0.141761 -0.181061 -0.0875258 0.0882972 -0.130059 -0.118041 0.0254796 -0.0969191 -0.148821 -0.301524 -0.0545945 -0.0106554 -0.100828 -0.16962 -0.141965 0.129306 0.0837927 -0.37788 -0.39615 -0.0989117 -0.0405513 0.0175722 0.0378879 -0.0286882 0.110134 -0.0589167 -0.102875 0.00975326 -0.0641716 0.0226141 0.0336539 -0.00481848 -0.029252 -0.0226688 0.119256 -0.0418331 0.0813322 0.0692721 -0.18917 -0.0306522 -0.0496296 -0.0802631 -0.249642 -0.00726948 -0.00573954 -0.0266938 -0.181645 0.0589338 0.109841 -0.279826 -0.0950881 0.0323401 0.109103 -0.143524 -0.214876 -0.0434994 -0.141421 -0.100118 -0.124357 0.129879 -0.00374283 0.0295704 -0.0234686 -0.0704322 -0.0929475 -0.106666 -0.0147636 -0.0479538 -0.422851 -0.0690645 0.0385735 0.00912271 -0.0919229 -0.189207 0.0278359 -0.00158731 -0.186638 0.0449411 -0.122185 -0.0407036 0.0262183 -0.00685784 -0.19888
internal_weight=309294 289709 275505 187601 173395 87904 159251 68094 19585 65230 67682 14204 94021 19810 48559 45462 47779 34025 34284 5665 28360 2697 8325 31205 17196 14144 28266 25186 25482 14275 11507 11260 19903 14206 10889 8565 28628 9444 19812 17035 1586 8551 7368 3315 2847 4397 2942 1924 14170 22593 11285 11308 6067 8486 9304 11255 14227 9090 10998 14306 2878 22651 11367 11259 4075 4130 11417 5803 5193 5756 11284 4593 11362 5374 1974 8519 9165 5560 2350 2777 8814 5656 4356 6492 2890 928 3359 5955 3932 2765 1183 4807 1955 3972 4666 5444 9087 3317 3811 25781 14217 9352 1341 5869 1608 658 8767 5279 1735 8730 4700 7267 2109 1437 3720 5022 671 3201 3936 1770 3754 5492 2945 1297 5137 3133 2842 2664 4865 572 2469 2500 1111 1851 2854 3334 3424 8572 456 7870 7184 3120 2352 4173 7349 2018 3992 3095 2979 903 4114 213 6610 3187 1325 11564 1577 7055 1686 2465 2626 164 1406 780 2197 2482 2113 2944 179 144 479 4799 3984 5690 1830 2230 523 781 412 384 1522 1140 2398 1253 2532 2603 596 5620 2671 3913 6825 4680 3306 1581 5615 1087 2416 9437 5348 2078 469 5108 902 947 3892 3872 1773 439 3901 1516 637 844 1872 1154 102 78 1624 1348 1491 362 2168 2370 2023 1662 2525 2120 1697 1461 3788 501 2453 1795 898 132 96 3437 7152 1541 5412 509 4857 2639 917 369
internal_count=309294 289709 275505 187601 173395 87904 159251 68094 19585 65230 67682 14204 94021 19810 48559 45462 47779 34025 34284 5665 28360 2697 8325 31205 17196 14144 28266 25186 25482 14275 11507 11260 19903 14206 10889 8565 28628 9444 19812 17035 1586 8551 7368 3315 2847 4397 2942 1924 14170 22593 11285 11308 6067 8486 9304 11255 14227 9090 10998 14306 2878 22651 11367 11259 4075 4130 11417 5803 5193 5756 11284 4593 11362 5374 1974 8519 9165 5560 2350 2777 8814 5656 4356 6492 2890 928 3359 5955 3932 2765 1183 4807 1955 3972 4666 5444 9087 3317 3811 25781 14217 9352 1341 5869 1608 658 8767 5279 1735 8730 4700 7267 2109 1437 3720 5022 671 3201 3936 1770 3754 5492 2945 1297 5137 3133 2842 2664 4865 572 2469 2500 1111 1851 2854 3334 3424 8572 456 7870 7184 3120 2352 4173 7349 2018 3992 3095 2979 903 4114 213 6610 3187 1325 11564 1577 7055 1686 2465 2626 164 1406 780 2197 2482 2113 2944 179 144 479 4799 3984 5690 1830 2230 523 781 412 384 1522 1140 2398 1253 2532 2603 596 5620 2671 3913 6825 4680 3306 1581 5615 1087 2416 9437 5348 2078 469 5108 902 947 3892 3872 1773 439 3901 1516 637 844 1872 1154 102 78 1624 1348 1491 362 2168 2370 2023 1662 2525 2120 1697 1461 3788 501 2453 1795 898 132 96 3437 7152 1541 5412 509 4857 2639 917 369
is_linear=0
shrinkage=0.098338


Tree=3
num_leaves=245
num_cat=0
